digraph Tree {
node [shape=box, style="rounded", color="black", fontname="helvetica"] ;
edge [fontname="helvetica"] ;
0 [label="car_model_Logan <= 0.5\nsquared_error = 1854571294.7\nsamples = 3219\nvalue = 67171.7"] ;
1 [label="car_model_LX <= 0.5\nsquared_error = 1852447069.5\nsamples = 3215\nvalue = 67252.9"] ;
0 -> 1 [labeldistance=2.5, labelangle=45, headlabel="True"] ;
2 [label="car_model_Accent <= 0.5\nsquared_error = 1804988087.2\nsamples = 3196\nvalue = 66764.9"] ;
1 -> 2 ;
3 [label="car_model_Cores <= 0.5\nsquared_error = 1815608494.3\nsamples = 3086\nvalue = 67961.2"] ;
2 -> 3 ;
4 [label="car_brand_Subaru <= 0.5\nsquared_error = 1814966762.3\nsamples = 3085\nvalue = 67985.3"] ;
3 -> 4 ;
5 [label="car_model_Malibu <= 0.5\nsquared_error = 1813967140.1\nsamples = 3082\nvalue = 68066.8"] ;
4 -> 5 ;
6 [label="car_brand_Genesis <= 0.5\nsquared_error = 1817242700.8\nsamples = 3065\nvalue = 68228.8"] ;
5 -> 6 ;
7 [label="car_model_Land Cruiser Pickup <= 0.5\nsquared_error = 1822909080.5\nsamples = 3041\nvalue = 68009.2"] ;
6 -> 7 ;
8 [label="car_model_Land Cruiser <= 0.5\nsquared_error = 1823110581.1\nsamples = 3024\nvalue = 67811.3"] ;
7 -> 8 ;
9 [label="car_model_Spark <= 0.5\nsquared_error = 1763691847.1\nsamples = 2958\nvalue = 66809.3"] ;
8 -> 9 ;
10 [label="car_model_MKX <= 0.5\nsquared_error = 1762030937.2\nsamples = 2949\nvalue = 66945.7"] ;
9 -> 10 ;
11 [label="car_model_Sonata <= 0.5\nsquared_error = 1743698328.1\nsamples = 2941\nvalue = 66718.2"] ;
10 -> 11 ;
12 [label="car_model_GX <= 0.5\nsquared_error = 1773698348.1\nsamples = 2858\nvalue = 67222.6"] ;
11 -> 12 ;
13 [label="car_model_Cruze <= 0.5\nsquared_error = 1762731759.0\nsamples = 2856\nvalue = 67089.1"] ;
12 -> 13 ;
14 [label="car_model_F150 <= 0.5\nsquared_error = 1761508882.4\nsamples = 2851\nvalue = 67205.9"] ;
13 -> 14 ;
15 [label="car_model_GS <= 0.5\nsquared_error = 1745493433.4\nsamples = 2841\nvalue = 67021.0"] ;
14 -> 15 ;
16 [label="car_model_Edge <= 0.5\nsquared_error = 1735142911.1\nsamples = 2833\nvalue = 66861.9"] ;
15 -> 16 ;
17 [label="car_model_S5 <= 0.5\nsquared_error = 1703528208.0\nsamples = 2724\nvalue = 65669.7"] ;
16 -> 17 ;
18 [label="car_model_year <= 2014.5\nsquared_error = 1700136516.6\nsamples = 2723\nvalue = 65625.3"] ;
17 -> 18 ;
19 [label="car_brand_Mitsubishi <= 0.5\nsquared_error = 653763544.0\nsamples = 944\nvalue = 41919.6"] ;
18 -> 19 ;
20 [label="car_model_Navigator <= 0.5\nsquared_error = 660435725.4\nsamples = 929\nvalue = 42034.4"] ;
19 -> 20 ;
21 [label="car_model_Previa <= 0.5\nsquared_error = 655081078.6\nsamples = 924\nvalue = 41831.8"] ;
20 -> 21 ;
22 [label="car_model_EcoSport <= 0.5\nsquared_error = 654542494.5\nsamples = 922\nvalue = 41912.3"] ;
21 -> 22 ;
23 [label="car_brand_Kia <= 0.5\nsquared_error = 657410655.2\nsamples = 915\nvalue = 42097.2"] ;
22 -> 23 ;
24 [label="car_model_Pathfinder <= 0.5\nsquared_error = 663156529.5\nsamples = 881\nvalue = 42764.0"] ;
23 -> 24 ;
25 [label="car_model_Taurus <= 0.5\nsquared_error = 663463689.2\nsamples = 872\nvalue = 42954.6"] ;
24 -> 25 ;
26 [label="car_model_Land <= 0.5\nsquared_error = 687521773.5\nsamples = 836\nvalue = 43109.6"] ;
25 -> 26 ;
27 [label="car_brand_Toyota <= 0.5\nsquared_error = 677898812.2\nsamples = 831\nvalue = 42873.5"] ;
26 -> 27 ;
28 [label="car_model_Cayman <= 0.5\nsquared_error = 715464284.9\nsamples = 698\nvalue = 43657.4"] ;
27 -> 28 ;
29 [label="car_model_S <= 0.5\nsquared_error = 715483337.2\nsamples = 697\nvalue = 43633.4"] ;
28 -> 29 ;
30 [label="car_model_Expedition <= 0.5\nsquared_error = 681337305.5\nsamples = 680\nvalue = 42781.5"] ;
29 -> 30 ;
31 [label="car_model_DB9 <= 0.5\nsquared_error = 731072447.8\nsamples = 601\nvalue = 41351.7"] ;
30 -> 31 ;
32 [label="car_brand_Daihatsu <= 0.5\nsquared_error = 711314937.7\nsamples = 600\nvalue = 41203.8"] ;
31 -> 32 ;
33 [label="car_model_The 6 <= 0.5\nsquared_error = 713498026.2\nsamples = 598\nvalue = 41221.5"] ;
32 -> 33 ;
34 [label="car_model_Captiva <= 0.5\nsquared_error = 702163039.5\nsamples = 596\nvalue = 41015.0"] ;
33 -> 34 ;
35 [label="car_brand_Geely <= 0.5\nsquared_error = 701920434.7\nsamples = 595\nvalue = 41076.3"] ;
34 -> 35 ;
36 [label="car_brand_Mercedes <= 0.5\nsquared_error = 700589698.2\nsamples = 589\nvalue = 41502.1"] ;
35 -> 36 ;
37 [label="car_model_A8 <= 0.5\nsquared_error = 695764716.4\nsamples = 579\nvalue = 41326.4"] ;
36 -> 37 ;
38 [label="car_model_Focus <= 0.5\nsquared_error = 684816103.8\nsamples = 576\nvalue = 41043.0"] ;
37 -> 38 ;
39 [label="car_model_Caprice <= 0.5\nsquared_error = 691602069.9\nsamples = 557\nvalue = 41878.0"] ;
38 -> 39 ;
40 [label="car_model_Grand Marquis <= 0.5\nsquared_error = 680200832.5\nsamples = 534\nvalue = 41390.7"] ;
39 -> 40 ;
41 [label="car_model_3 <= 0.5\nsquared_error = 681354298.0\nsamples = 530\nvalue = 41489.6"] ;
40 -> 41 ;
42 [label="car_model_Tucson <= 0.5\nsquared_error = 681459051.2\nsamples = 528\nvalue = 41550.3"] ;
41 -> 42 ;
43 [label="car_model_200 <= 0.5\nsquared_error = 682946404.1\nsamples = 527\nvalue = 41610.9"] ;
42 -> 43 ;
44 [label="car_model_Quattroporte <= 0.5\nsquared_error = 637676418.2\nsamples = 526\nvalue = 41272.5"] ;
43 -> 44 ;
45 [label="car_brand_Land Rover <= 0.5\nsquared_error = 614123962.0\nsamples = 525\nvalue = 40964.3"] ;
44 -> 45 ;
46 [label="car_model_Fusion <= 0.5\nsquared_error = 575264447.2\nsamples = 516\nvalue = 40542.4"] ;
45 -> 46 ;
47 [label="car_model_H1 <= 0.5\nsquared_error = 583549746.2\nsamples = 507\nvalue = 40742.6"] ;
46 -> 47 ;
48 [label="car_model_Sunny <= 0.5\nsquared_error = 586596206.4\nsamples = 500\nvalue = 40943.1"] ;
47 -> 48 ;
49 [label="car_model_Grand Vitara <= 0.5\nsquared_error = 582750009.0\nsamples = 493\nvalue = 41328.0"] ;
48 -> 49 ;
50 [label="car_brand_Dodge <= 0.5\nsquared_error = 584172292.8\nsamples = 492\nvalue = 41344.6"] ;
49 -> 50 ;
51 [label="car_model_E <= 0.5\nsquared_error = 599707889.6\nsamples = 470\nvalue = 41589.2"] ;
50 -> 51 ;
52 [label="car_model_Elantra <= 0.5\nsquared_error = 595833326.0\nsamples = 469\nvalue = 41508.8"] ;
51 -> 52 ;
53 [label="car_model_MKS <= 0.5\nsquared_error = 593182705.0\nsamples = 457\nvalue = 42094.1"] ;
52 -> 53 ;
54 [label="car_model_Traverse <= 0.5\nsquared_error = 538306171.0\nsamples = 449\nvalue = 40760.2"] ;
53 -> 54 ;
55 [label="car_brand_Peugeot <= 0.5\nsquared_error = 545827696.7\nsamples = 440\nvalue = 40995.3"] ;
54 -> 55 ;
56 [label="car_model_Other <= 0.5\nsquared_error = 546226096.3\nsamples = 435\nvalue = 41288.6"] ;
55 -> 56 ;
57 [label="car_model_Cherokee <= 0.5\nsquared_error = 546114606.3\nsamples = 433\nvalue = 41388.8"] ;
56 -> 57 ;
58 [label="car_model_The 5 <= 0.5\nsquared_error = 545656415.0\nsamples = 432\nvalue = 41468.2"] ;
57 -> 58 ;
59 [label="car_model_Montero2 <= 0.5\nsquared_error = 546082877.8\nsamples = 430\nvalue = 41373.6"] ;
58 -> 59 ;
60 [label="car_model_Flex <= 0.5\nsquared_error = 545855136.8\nsamples = 429\nvalue = 41413.5"] ;
59 -> 60 ;
61 [label="car_model_Marquis <= 0.5\nsquared_error = 549172492.8\nsamples = 423\nvalue = 41508.9"] ;
60 -> 61 ;
62 [label="car_brand_Jeep <= 0.5\nsquared_error = 550084642.2\nsamples = 413\nvalue = 41929.4"] ;
61 -> 62 ;
63 [label="car_brand_Mercury <= 0.5\nsquared_error = 546231941.6\nsamples = 398\nvalue = 41647.0"] ;
62 -> 63 ;
64 [label="car_model_Yukon <= 0.5\nsquared_error = 546738269.5\nsamples = 395\nvalue = 41820.3"] ;
63 -> 64 ;
65 [label="car_brand_Honda <= 0.5\nsquared_error = 548579643.7\nsamples = 362\nvalue = 40999.7"] ;
64 -> 65 ;
66 [label="car_brand_Abarth <= 0.5\nsquared_error = 560225669.4\nsamples = 340\nvalue = 41630.2"] ;
65 -> 66 ;
67 [label="car_model_Explorer <= 0.5\nsquared_error = 562903966.5\nsamples = 338\nvalue = 41676.7"] ;
66 -> 67 ;
68 [label="car_brand_Chrysler <= 0.5\nsquared_error = 603153610.2\nsamples = 298\nvalue = 40474.3"] ;
67 -> 68 ;
69 [label="car_model_A6 <= 0.5\nsquared_error = 617391429.2\nsamples = 284\nvalue = 40960.1"] ;
68 -> 69 ;
70 [label="car_model_Patrol <= 0.5\nsquared_error = 616858962.1\nsamples = 283\nvalue = 40892.2"] ;
69 -> 70 ;
71 [label="car_model_Silverado <= 0.5\nsquared_error = 587423032.0\nsamples = 273\nvalue = 39828.2"] ;
70 -> 71 ;
72 [label="car_model_Crown <= 0.5\nsquared_error = 581772501.8\nsamples = 271\nvalue = 39497.3"] ;
71 -> 72 ;
73 [label="car_brand_Lincoln <= 0.5\nsquared_error = 581062372.6\nsamples = 270\nvalue = 39569.4"] ;
72 -> 73 ;
74 [label="car_model_Optra <= 0.5\nsquared_error = 570969141.9\nsamples = 264\nvalue = 38860.7"] ;
73 -> 74 ;
75 [label="car_model_Envoy <= 0.5\nsquared_error = 568460410.7\nsamples = 261\nvalue = 39086.9"] ;
74 -> 75 ;
76 [label="car_model_Cayenne <= 0.5\nsquared_error = 568171211.3\nsamples = 259\nvalue = 39272.8"] ;
75 -> 76 ;
77 [label="car_brand_Land <= 0.5\nsquared_error = 549094849.6\nsamples = 257\nvalue = 38952.4"] ;
76 -> 77 ;
78 [label="car_brand_Porsche <= 0.5\nsquared_error = 519446968.3\nsamples = 253\nvalue = 38540.3"] ;
77 -> 78 ;
79 [label="car_model_Tiida <= 0.5\nsquared_error = 423980193.6\nsamples = 247\nvalue = 36982.6"] ;
78 -> 79 ;
80 [label="car_brand_Ford <= 0.5\nsquared_error = 416841625.4\nsamples = 244\nvalue = 37516.3"] ;
79 -> 80 ;
81 [label="car_transmission_Automatic <= 0.5\nsquared_error = 449369371.3\nsamples = 218\nvalue = 38178.9"] ;
80 -> 81 ;
82 [label="car_model_6 <= 0.5\nsquared_error = 539315555.6\nsamples = 30\nvalue = 33133.3"] ;
81 -> 82 ;
83 [label="car_model_Maxima <= 0.5\nsquared_error = 549745351.2\nsamples = 29\nvalue = 32931.8"] ;
82 -> 83 ;
84 [label="car_model_Swift <= 0.5\nsquared_error = 554359607.4\nsamples = 27\nvalue = 34487.8"] ;
83 -> 84 ;
85 [label="car_brand_Renault <= 0.5\nsquared_error = 557895792.2\nsamples = 26\nvalue = 35589.7"] ;
84 -> 85 ;
86 [label="car_model_Aveo <= 0.5\nsquared_error = 562212603.9\nsamples = 25\nvalue = 36105.3"] ;
85 -> 86 ;
87 [label="car_brand_Mazda <= 0.5\nsquared_error = 555481738.5\nsamples = 24\nvalue = 36864.9"] ;
86 -> 87 ;
88 [label="car_model_D-MAX <= 0.5\nsquared_error = 565986111.1\nsamples = 23\nvalue = 36500.0"] ;
87 -> 88 ;
89 [label="car_model_Q7 <= 0.5\nsquared_error = 584216479.2\nsamples = 21\nvalue = 36338.2"] ;
88 -> 89 ;
90 [label="car_model_Datsun <= 0.5\nsquared_error = 604441162.1\nsamples = 20\nvalue = 35359.4"] ;
89 -> 90 ;
91 [label="car_model_Altima <= 0.5\nsquared_error = 697117284.0\nsamples = 17\nvalue = 36388.9"] ;
90 -> 91 ;
92 [label="car_model_Juke <= 0.5\nsquared_error = 698539930.6\nsamples = 14\nvalue = 39458.3"] ;
91 -> 92 ;
93 [label="car_brand_Chevrolet <= 0.5\nsquared_error = 796378684.8\nsamples = 13\nvalue = 39952.4"] ;
92 -> 93 ;
94 [label="car_model_Bus Urvan <= 0.5\nsquared_error = 901330246.9\nsamples = 11\nvalue = 41944.4"] ;
93 -> 94 ;
95 [label="car_model_Dyna <= 0.5\nsquared_error = 899136094.7\nsamples = 9\nvalue = 51692.3"] ;
94 -> 95 ;
96 [label="car_brand_Suzuki <= 0.5\nsquared_error = 404395061.7\nsamples = 6\nvalue = 35222.2"] ;
95 -> 96 ;
97 [label="car_brand_Chery <= 0.5\nsquared_error = 391609375.0\nsamples = 5\nvalue = 37875.0"] ;
96 -> 97 ;
98 [label="car_brand_Kenbo <= 0.5\nsquared_error = 201138888.9\nsamples = 4\nvalue = 46833.3"] ;
97 -> 98 ;
99 [label="car_model_Sylvian Bus <= 0.5\nsquared_error = 126960000.0\nsamples = 3\nvalue = 51200.0"] ;
98 -> 99 ;
100 [label="car_driven <= 130500.0\nsquared_error = 132250000.0\nsamples = 2\nvalue = 53500.0"] ;
99 -> 100 ;
101 [label="squared_error = 0.0\nsamples = 1\nvalue = 42000.0"] ;
100 -> 101 ;
102 [label="squared_error = 0.0\nsamples = 1\nvalue = 65000.0"] ;
100 -> 102 ;
103 [label="squared_error = 0.0\nsamples = 1\nvalue = 42000.0"] ;
99 -> 103 ;
104 [label="squared_error = 0.0\nsamples = 1\nvalue = 25000.0"] ;
98 -> 104 ;
105 [label="squared_error = 0.0\nsamples = 1\nvalue = 11000.0"] ;
97 -> 105 ;
106 [label="squared_error = 0.0\nsamples = 1\nvalue = 14000.0"] ;
96 -> 106 ;
107 [label="car_model_year <= 2013.5\nsquared_error = 28687500.0\nsamples = 3\nvalue = 88750.0"] ;
95 -> 107 ;
108 [label="car_driven <= 150150.0\nsquared_error = 2250000.0\nsamples = 2\nvalue = 83500.0"] ;
107 -> 108 ;
109 [label="squared_error = 0.0\nsamples = 1\nvalue = 82000.0"] ;
108 -> 109 ;
110 [label="squared_error = 0.0\nsamples = 1\nvalue = 85000.0"] ;
108 -> 110 ;
111 [label="squared_error = 0.0\nsamples = 1\nvalue = 94000.0"] ;
107 -> 111 ;
112 [label="car_model_year <= 2009.5\nsquared_error = 17640000.0\nsamples = 2\nvalue = 16600.0"] ;
94 -> 112 ;
113 [label="squared_error = 0.0\nsamples = 1\nvalue = 25000.0"] ;
112 -> 113 ;
114 [label="squared_error = 0.0\nsamples = 1\nvalue = 14500.0"] ;
112 -> 114 ;
115 [label="squared_error = 0.0\nsamples = 2\nvalue = 28000.0"] ;
93 -> 115 ;
116 [label="squared_error = 0.0\nsamples = 1\nvalue = 36000.0"] ;
92 -> 116 ;
117 [label="car_driven <= 240000.0\nsquared_error = 7388888.9\nsamples = 3\nvalue = 11833.3"] ;
91 -> 117 ;
118 [label="squared_error = 0.0\nsamples = 1\nvalue = 14000.0"] ;
117 -> 118 ;
119 [label="car_driven <= 312000.0\nsquared_error = 7562500.0\nsamples = 2\nvalue = 10750.0"] ;
117 -> 119 ;
120 [label="squared_error = 0.0\nsamples = 1\nvalue = 8000.0"] ;
119 -> 120 ;
121 [label="squared_error = 0.0\nsamples = 1\nvalue = 13500.0"] ;
119 -> 121 ;
122 [label="car_model_year <= 2011.0\nsquared_error = 67360000.0\nsamples = 3\nvalue = 29800.0"] ;
90 -> 122 ;
123 [label="squared_error = 0.0\nsamples = 1\nvalue = 45000.0"] ;
122 -> 123 ;
124 [label="car_model_year <= 2013.5\nsquared_error = 12000000.0\nsamples = 2\nvalue = 26000.0"] ;
122 -> 124 ;
125 [label="squared_error = 0.0\nsamples = 1\nvalue = 32000.0"] ;
124 -> 125 ;
126 [label="squared_error = 0.0\nsamples = 1\nvalue = 24000.0"] ;
124 -> 126 ;
127 [label="squared_error = 0.0\nsamples = 1\nvalue = 52000.0"] ;
89 -> 127 ;
128 [label="car_model_year <= 2009.5\nsquared_error = 248062500.0\nsamples = 2\nvalue = 39250.0"] ;
88 -> 128 ;
129 [label="squared_error = 0.0\nsamples = 1\nvalue = 23500.0"] ;
128 -> 129 ;
130 [label="squared_error = 0.0\nsamples = 1\nvalue = 55000.0"] ;
128 -> 130 ;
131 [label="squared_error = 0.0\nsamples = 1\nvalue = 50000.0"] ;
87 -> 131 ;
132 [label="squared_error = 0.0\nsamples = 1\nvalue = 8000.0"] ;
86 -> 132 ;
133 [label="squared_error = 0.0\nsamples = 1\nvalue = 16000.0"] ;
85 -> 133 ;
134 [label="squared_error = 0.0\nsamples = 1\nvalue = 13000.0"] ;
84 -> 134 ;
135 [label="car_model_year <= 2003.0\nsquared_error = 1388888.9\nsamples = 2\nvalue = 11666.7"] ;
83 -> 135 ;
136 [label="squared_error = 0.0\nsamples = 1\nvalue = 12500.0"] ;
135 -> 136 ;
137 [label="squared_error = 0.0\nsamples = 1\nvalue = 10000.0"] ;
135 -> 137 ;
138 [label="squared_error = 0.0\nsamples = 1\nvalue = 42000.0"] ;
82 -> 138 ;
139 [label="car_model_FX <= 0.5\nsquared_error = 430305596.4\nsamples = 188\nvalue = 38984.0"] ;
81 -> 139 ;
140 [label="car_model_year <= 2010.5\nsquared_error = 431222206.4\nsamples = 186\nvalue = 38812.9"] ;
139 -> 140 ;
141 [label="car_model_Trailblazer <= 0.5\nsquared_error = 303869749.3\nsamples = 82\nvalue = 27698.3"] ;
140 -> 141 ;
142 [label="car_brand_BMW <= 0.5\nsquared_error = 305305198.4\nsamples = 79\nvalue = 28392.2"] ;
141 -> 142 ;
143 [label="car_brand_Hummer <= 0.5\nsquared_error = 306149234.7\nsamples = 67\nvalue = 27107.1"] ;
142 -> 143 ;
144 [label="car_model_Blazer <= 0.5\nsquared_error = 267313065.9\nsamples = 64\nvalue = 26558.5"] ;
143 -> 144 ;
145 [label="car_model_IS <= 0.5\nsquared_error = 262363858.0\nsamples = 62\nvalue = 27394.4"] ;
144 -> 145 ;
146 [label="car_model_M <= 0.5\nsquared_error = 259505554.9\nsamples = 61\nvalue = 27140.4"] ;
145 -> 146 ;
147 [label="car_model_Maxima <= 0.5\nsquared_error = 259077963.6\nsamples = 60\nvalue = 27335.2"] ;
146 -> 147 ;
148 [label="car_model_RX <= 0.5\nsquared_error = 264433112.7\nsamples = 55\nvalue = 28286.6"] ;
147 -> 148 ;
149 [label="car_model_Acadia <= 0.5\nsquared_error = 266748818.8\nsamples = 54\nvalue = 28179.0"] ;
148 -> 149 ;
150 [label="car_model_View <= 0.5\nsquared_error = 276476640.2\nsamples = 52\nvalue = 28629.9"] ;
149 -> 150 ;
151 [label="car_model_Z350 <= 0.5\nsquared_error = 278153047.1\nsamples = 51\nvalue = 28789.5"] ;
150 -> 151 ;
152 [label="car_brand_Suzuki <= 0.5\nsquared_error = 275783288.9\nsamples = 50\nvalue = 28506.7"] ;
151 -> 152 ;
153 [label="car_brand_Mercedes-Benz <= 0.5\nsquared_error = 273698442.5\nsamples = 49\nvalue = 29013.7"] ;
152 -> 153 ;
154 [label="car_model_Escalade <= 0.5\nsquared_error = 210812644.4\nsamples = 47\nvalue = 27449.3"] ;
153 -> 154 ;
155 [label="car_model_VTC <= 0.5\nsquared_error = 211536331.4\nsamples = 44\nvalue = 26953.8"] ;
154 -> 155 ;
156 [label="car_model_Tahoe <= 0.5\nsquared_error = 213814209.0\nsamples = 43\nvalue = 26828.1"] ;
155 -> 156 ;
157 [label="car_brand_Cadillac <= 0.5\nsquared_error = 266919194.2\nsamples = 32\nvalue = 25531.9"] ;
156 -> 157 ;
158 [label="car_model_LS <= 0.5\nsquared_error = 271792533.1\nsamples = 31\nvalue = 25391.3"] ;
157 -> 158 ;
159 [label="car_model_Lumina <= 0.5\nsquared_error = 221229024.9\nsamples = 27\nvalue = 23404.8"] ;
158 -> 159 ;
160 [label="car_model_Suburban <= 0.5\nsquared_error = 215861943.0\nsamples = 24\nvalue = 25445.9"] ;
159 -> 160 ;
161 [label="car_brand_GMC <= 0.5\nsquared_error = 154147460.9\nsamples = 12\nvalue = 20656.2"] ;
160 -> 161 ;
162 [label="car_model_Altima <= 0.5\nsquared_error = 157628826.5\nsamples = 11\nvalue = 22178.6"] ;
161 -> 162 ;
163 [label="car_brand_Audi <= 0.5\nsquared_error = 177359375.0\nsamples = 6\nvalue = 28125.0"] ;
162 -> 163 ;
164 [label="car_model_Beetle <= 0.5\nsquared_error = 124571428.6\nsamples = 5\nvalue = 25000.0"] ;
163 -> 164 ;
165 [label="car_brand_Lexus <= 0.5\nsquared_error = 75138888.9\nsamples = 4\nvalue = 28166.7"] ;
164 -> 165 ;
166 [label="car_model_Jetta <= 0.5\nsquared_error = 66687500.0\nsamples = 3\nvalue = 24250.0"] ;
165 -> 166 ;
167 [label="car_model_CX7 <= 0.5\nsquared_error = 22222222.2\nsamples = 2\nvalue = 28333.3"] ;
166 -> 167 ;
168 [label="squared_error = 0.0\nsamples = 1\nvalue = 35000.0"] ;
167 -> 168 ;
169 [label="squared_error = 0.0\nsamples = 1\nvalue = 25000.0"] ;
167 -> 169 ;
170 [label="squared_error = 0.0\nsamples = 1\nvalue = 12000.0"] ;
166 -> 170 ;
171 [label="squared_error = 0.0\nsamples = 1\nvalue = 36000.0"] ;
165 -> 171 ;
172 [label="squared_error = 0.0\nsamples = 1\nvalue = 6000.0"] ;
164 -> 172 ;
173 [label="squared_error = 0.0\nsamples = 1\nvalue = 50000.0"] ;
163 -> 173 ;
174 [label="car_driven <= 223500.0\nsquared_error = 21312500.0\nsamples = 5\nvalue = 14250.0"] ;
162 -> 174 ;
175 [label="squared_error = 0.0\nsamples = 1\nvalue = 23000.0"] ;
174 -> 175 ;
176 [label="car_model_year <= 2009.5\nsquared_error = 7200000.0\nsamples = 4\nvalue = 12500.0"] ;
174 -> 176 ;
177 [label="car_driven <= 396000.0\nsquared_error = 9500000.0\nsamples = 3\nvalue = 11500.0"] ;
176 -> 177 ;
178 [label="car_driven <= 319500.0\nsquared_error = 2250000.0\nsamples = 2\nvalue = 13500.0"] ;
177 -> 178 ;
179 [label="squared_error = 0.0\nsamples = 1\nvalue = 15000.0"] ;
178 -> 179 ;
180 [label="squared_error = 0.0\nsamples = 1\nvalue = 12000.0"] ;
178 -> 180 ;
181 [label="squared_error = 0.0\nsamples = 1\nvalue = 7500.0"] ;
177 -> 181 ;
182 [label="squared_error = 0.0\nsamples = 1\nvalue = 14000.0"] ;
176 -> 182 ;
183 [label="squared_error = 0.0\nsamples = 1\nvalue = 10000.0"] ;
161 -> 183 ;
184 [label="car_model_year <= 2000.5\nsquared_error = 232086167.8\nsamples = 12\nvalue = 29095.2"] ;
160 -> 184 ;
185 [label="squared_error = 0.0\nsamples = 1\nvalue = 80000.0"] ;
184 -> 185 ;
186 [label="car_brand_GMC <= 0.5\nsquared_error = 107647500.0\nsamples = 11\nvalue = 26550.0"] ;
184 -> 186 ;
187 [label="car_model_year <= 2005.0\nsquared_error = 88888888.9\nsamples = 2\nvalue = 21666.7"] ;
186 -> 187 ;
188 [label="squared_error = 0.0\nsamples = 1\nvalue = 15000.0"] ;
187 -> 188 ;
189 [label="squared_error = 0.0\nsamples = 1\nvalue = 35000.0"] ;
187 -> 189 ;
190 [label="car_driven <= 98939.0\nsquared_error = 106006920.4\nsamples = 9\nvalue = 27411.8"] ;
186 -> 190 ;
191 [label="car_driven <= 43133.0\nsquared_error = 81632653.1\nsamples = 3\nvalue = 35714.3"] ;
190 -> 191 ;
192 [label="squared_error = 0.0\nsamples = 2\nvalue = 30000.0"] ;
191 -> 192 ;
193 [label="squared_error = 0.0\nsamples = 1\nvalue = 50000.0"] ;
191 -> 193 ;
194 [label="car_model_year <= 2004.5\nsquared_error = 41040000.0\nsamples = 6\nvalue = 21600.0"] ;
190 -> 194 ;
195 [label="car_driven <= 205939.0\nsquared_error = 12250000.0\nsamples = 2\nvalue = 11500.0"] ;
194 -> 195 ;
196 [label="squared_error = 0.0\nsamples = 1\nvalue = 15000.0"] ;
195 -> 196 ;
197 [label="squared_error = 0.0\nsamples = 1\nvalue = 8000.0"] ;
195 -> 197 ;
198 [label="car_driven <= 460000.0\nsquared_error = 16359375.0\nsamples = 4\nvalue = 24125.0"] ;
194 -> 198 ;
199 [label="car_model_year <= 2005.5\nsquared_error = 1959183.7\nsamples = 3\nvalue = 25571.4"] ;
198 -> 199 ;
200 [label="squared_error = 0.0\nsamples = 2\nvalue = 25000.0"] ;
199 -> 200 ;
201 [label="squared_error = 0.0\nsamples = 1\nvalue = 29000.0"] ;
199 -> 201 ;
202 [label="squared_error = 0.0\nsamples = 1\nvalue = 14000.0"] ;
198 -> 202 ;
203 [label="car_model_year <= 2005.5\nsquared_error = 1960000.0\nsamples = 3\nvalue = 8300.0"] ;
159 -> 203 ;
204 [label="squared_error = 0.0\nsamples = 1\nvalue = 5500.0"] ;
203 -> 204 ;
205 [label="squared_error = 0.0\nsamples = 2\nvalue = 9000.0"] ;
203 -> 205 ;
206 [label="car_model_year <= 2005.0\nsquared_error = 326187500.0\nsamples = 4\nvalue = 46250.0"] ;
158 -> 206 ;
207 [label="squared_error = 0.0\nsamples = 1\nvalue = 26000.0"] ;
206 -> 207 ;
208 [label="car_driven <= 199000.0\nsquared_error = 252666666.7\nsamples = 3\nvalue = 53000.0"] ;
206 -> 208 ;
209 [label="squared_error = 0.0\nsamples = 1\nvalue = 75000.0"] ;
208 -> 209 ;
210 [label="car_driven <= 283500.0\nsquared_error = 16000000.0\nsamples = 2\nvalue = 42000.0"] ;
208 -> 210 ;
211 [label="squared_error = 0.0\nsamples = 1\nvalue = 46000.0"] ;
210 -> 211 ;
212 [label="squared_error = 0.0\nsamples = 1\nvalue = 38000.0"] ;
210 -> 212 ;
213 [label="squared_error = 0.0\nsamples = 1\nvalue = 32000.0"] ;
157 -> 213 ;
214 [label="car_model_year <= 2006.0\nsquared_error = 49506920.4\nsamples = 11\nvalue = 30411.8"] ;
156 -> 214 ;
215 [label="car_driven <= 446423.0\nsquared_error = 62500.0\nsamples = 2\nvalue = 13250.0"] ;
214 -> 215 ;
216 [label="squared_error = 0.0\nsamples = 1\nvalue = 13500.0"] ;
215 -> 216 ;
217 [label="squared_error = 0.0\nsamples = 1\nvalue = 13000.0"] ;
215 -> 217 ;
218 [label="car_driven <= 404379.0\nsquared_error = 11593333.3\nsamples = 9\nvalue = 32700.0"] ;
214 -> 218 ;
219 [label="car_model_year <= 2008.5\nsquared_error = 8343112.2\nsamples = 8\nvalue = 32178.6"] ;
218 -> 219 ;
220 [label="car_model_year <= 2007.5\nsquared_error = 8185763.9\nsamples = 7\nvalue = 31708.3"] ;
219 -> 220 ;
221 [label="car_driven <= 289.0\nsquared_error = 4812500.0\nsamples = 3\nvalue = 31750.0"] ;
220 -> 221 ;
222 [label="squared_error = 0.0\nsamples = 1\nvalue = 35000.0"] ;
221 -> 222 ;
223 [label="car_driven <= 187225.0\nsquared_error = 3240000.0\nsamples = 2\nvalue = 31100.0"] ;
221 -> 223 ;
224 [label="squared_error = 0.0\nsamples = 1\nvalue = 27500.0"] ;
223 -> 224 ;
225 [label="squared_error = 0.0\nsamples = 1\nvalue = 32000.0"] ;
223 -> 225 ;
226 [label="car_driven <= 313000.0\nsquared_error = 11555555.6\nsamples = 4\nvalue = 31666.7"] ;
220 -> 226 ;
227 [label="car_driven <= 115150.0\nsquared_error = 8640000.0\nsamples = 3\nvalue = 32600.0"] ;
226 -> 227 ;
228 [label="squared_error = 0.0\nsamples = 1\nvalue = 29000.0"] ;
227 -> 228 ;
229 [label="car_driven <= 263000.0\nsquared_error = 6750000.0\nsamples = 2\nvalue = 33500.0"] ;
227 -> 229 ;
230 [label="squared_error = 0.0\nsamples = 1\nvalue = 38000.0"] ;
229 -> 230 ;
231 [label="squared_error = 0.0\nsamples = 1\nvalue = 32000.0"] ;
229 -> 231 ;
232 [label="squared_error = 0.0\nsamples = 1\nvalue = 27000.0"] ;
226 -> 232 ;
233 [label="squared_error = 0.0\nsamples = 1\nvalue = 35000.0"] ;
219 -> 233 ;
234 [label="squared_error = 0.0\nsamples = 1\nvalue = 40000.0"] ;
218 -> 234 ;
235 [label="squared_error = 0.0\nsamples = 1\nvalue = 35000.0"] ;
155 -> 235 ;
236 [label="car_model_year <= 2008.0\nsquared_error = 130250000.0\nsamples = 3\nvalue = 35500.0"] ;
154 -> 236 ;
237 [label="squared_error = 0.0\nsamples = 1\nvalue = 18000.0"] ;
236 -> 237 ;
238 [label="car_model_year <= 2009.5\nsquared_error = 37555555.6\nsamples = 2\nvalue = 41333.3"] ;
236 -> 238 ;
239 [label="squared_error = 0.0\nsamples = 1\nvalue = 50000.0"] ;
238 -> 239 ;
240 [label="squared_error = 0.0\nsamples = 1\nvalue = 37000.0"] ;
238 -> 240 ;
241 [label="car_driven <= 196500.0\nsquared_error = 588000000.0\nsamples = 2\nvalue = 56000.0"] ;
153 -> 241 ;
242 [label="squared_error = 0.0\nsamples = 1\nvalue = 70000.0"] ;
241 -> 242 ;
243 [label="squared_error = 0.0\nsamples = 1\nvalue = 14000.0"] ;
241 -> 243 ;
244 [label="squared_error = 0.0\nsamples = 1\nvalue = 10000.0"] ;
152 -> 244 ;
245 [label="squared_error = 0.0\nsamples = 1\nvalue = 50000.0"] ;
151 -> 245 ;
246 [label="squared_error = 0.0\nsamples = 1\nvalue = 16500.0"] ;
150 -> 246 ;
247 [label="car_driven <= 224500.0\nsquared_error = 250000.0\nsamples = 2\nvalue = 19500.0"] ;
149 -> 247 ;
248 [label="squared_error = 0.0\nsamples = 1\nvalue = 20000.0"] ;
247 -> 248 ;
249 [label="squared_error = 0.0\nsamples = 1\nvalue = 19000.0"] ;
247 -> 249 ;
250 [label="squared_error = 0.0\nsamples = 1\nvalue = 37000.0"] ;
148 -> 250 ;
251 [label="car_driven <= 255500.0\nsquared_error = 4472222.2\nsamples = 5\nvalue = 14333.3"] ;
147 -> 251 ;
252 [label="car_model_year <= 2005.5\nsquared_error = 562500.0\nsamples = 3\nvalue = 15750.0"] ;
251 -> 252 ;
253 [label="squared_error = 0.0\nsamples = 1\nvalue = 15000.0"] ;
252 -> 253 ;
254 [label="car_driven <= 213500.0\nsquared_error = 500000.0\nsamples = 2\nvalue = 16000.0"] ;
252 -> 254 ;
255 [label="squared_error = 0.0\nsamples = 1\nvalue = 16500.0"] ;
254 -> 255 ;
256 [label="squared_error = 0.0\nsamples = 1\nvalue = 15000.0"] ;
254 -> 256 ;
257 [label="car_driven <= 328500.0\nsquared_error = 250000.0\nsamples = 2\nvalue = 11500.0"] ;
251 -> 257 ;
258 [label="squared_error = 0.0\nsamples = 1\nvalue = 12000.0"] ;
257 -> 258 ;
259 [label="squared_error = 0.0\nsamples = 1\nvalue = 11000.0"] ;
257 -> 259 ;
260 [label="squared_error = 0.0\nsamples = 1\nvalue = 10000.0"] ;
146 -> 260 ;
261 [label="squared_error = 0.0\nsamples = 1\nvalue = 50000.0"] ;
145 -> 261 ;
262 [label="car_driven <= 330000.0\nsquared_error = 9187500.0\nsamples = 2\nvalue = 7750.0"] ;
144 -> 262 ;
263 [label="squared_error = 0.0\nsamples = 1\nvalue = 6000.0"] ;
262 -> 263 ;
264 [label="squared_error = 0.0\nsamples = 1\nvalue = 13000.0"] ;
262 -> 264 ;
265 [label="car_driven <= 118104.0\nsquared_error = 1045500000.0\nsamples = 3\nvalue = 40000.0"] ;
143 -> 265 ;
266 [label="squared_error = 0.0\nsamples = 1\nvalue = 96000.0"] ;
265 -> 266 ;
267 [label="car_driven <= 288000.0\nsquared_error = 222222.2\nsamples = 2\nvalue = 21333.3"] ;
265 -> 267 ;
268 [label="squared_error = 0.0\nsamples = 1\nvalue = 22000.0"] ;
267 -> 268 ;
269 [label="squared_error = 0.0\nsamples = 1\nvalue = 21000.0"] ;
267 -> 269 ;
270 [label="car_model_The 7 <= 0.5\nsquared_error = 242765432.1\nsamples = 12\nvalue = 35388.9"] ;
142 -> 270 ;
271 [label="car_model_year <= 2009.5\nsquared_error = 284687500.0\nsamples = 7\nvalue = 35250.0"] ;
270 -> 271 ;
272 [label="car_model_X5 <= 0.5\nsquared_error = 67387755.1\nsamples = 6\nvalue = 29571.4"] ;
271 -> 272 ;
273 [label="car_model_year <= 2007.0\nsquared_error = 78583333.3\nsamples = 5\nvalue = 29500.0"] ;
272 -> 273 ;
274 [label="car_model_X <= 0.5\nsquared_error = 51000000.0\nsamples = 3\nvalue = 25000.0"] ;
273 -> 274 ;
275 [label="car_driven <= 197000.0\nsquared_error = 32000000.0\nsamples = 2\nvalue = 28000.0"] ;
274 -> 275 ;
276 [label="squared_error = 0.0\nsamples = 1\nvalue = 32000.0"] ;
275 -> 276 ;
277 [label="squared_error = 0.0\nsamples = 1\nvalue = 20000.0"] ;
275 -> 277 ;
278 [label="squared_error = 0.0\nsamples = 1\nvalue = 16000.0"] ;
274 -> 278 ;
279 [label="car_model_X6 <= 0.5\nsquared_error = 12250000.0\nsamples = 2\nvalue = 38500.0"] ;
273 -> 279 ;
280 [label="squared_error = 0.0\nsamples = 1\nvalue = 35000.0"] ;
279 -> 280 ;
281 [label="squared_error = 0.0\nsamples = 1\nvalue = 42000.0"] ;
279 -> 281 ;
282 [label="squared_error = 0.0\nsamples = 1\nvalue = 30000.0"] ;
272 -> 282 ;
283 [label="squared_error = 0.0\nsamples = 1\nvalue = 75000.0"] ;
271 -> 283 ;
284 [label="car_driven <= 312000.0\nsquared_error = 209200000.0\nsamples = 5\nvalue = 35500.0"] ;
270 -> 284 ;
285 [label="car_driven <= 291000.0\nsquared_error = 203193877.6\nsamples = 4\nvalue = 30142.9"] ;
284 -> 285 ;
286 [label="car_driven <= 88102.5\nsquared_error = 89840000.0\nsamples = 3\nvalue = 37600.0"] ;
285 -> 286 ;
287 [label="squared_error = 0.0\nsamples = 1\nvalue = 45000.0"] ;
286 -> 287 ;
288 [label="car_model_year <= 2008.5\nsquared_error = 88888888.9\nsamples = 2\nvalue = 32666.7"] ;
286 -> 288 ;
289 [label="squared_error = 0.0\nsamples = 1\nvalue = 26000.0"] ;
288 -> 289 ;
290 [label="squared_error = 0.0\nsamples = 1\nvalue = 46000.0"] ;
288 -> 290 ;
291 [label="squared_error = 0.0\nsamples = 1\nvalue = 11500.0"] ;
285 -> 291 ;
292 [label="squared_error = 0.0\nsamples = 1\nvalue = 48000.0"] ;
284 -> 292 ;
293 [label="car_driven <= 244000.0\nsquared_error = 240000.0\nsamples = 3\nvalue = 11600.0"] ;
141 -> 293 ;
294 [label="squared_error = 0.0\nsamples = 2\nvalue = 12000.0"] ;
293 -> 294 ;
295 [label="squared_error = 0.0\nsamples = 1\nvalue = 11000.0"] ;
293 -> 295 ;
296 [label="car_model_Armada <= 0.5\nsquared_error = 360787902.1\nsamples = 104\nvalue = 47379.0"] ;
140 -> 296 ;
297 [label="car_brand_Mazda <= 0.5\nsquared_error = 362073009.1\nsamples = 103\nvalue = 47298.1"] ;
296 -> 297 ;
298 [label="car_model_The 7 <= 0.5\nsquared_error = 371718316.0\nsamples = 94\nvalue = 48062.5"] ;
297 -> 298 ;
299 [label="car_model_Camaro <= 0.5\nsquared_error = 356056385.5\nsamples = 92\nvalue = 47453.9"] ;
298 -> 299 ;
300 [label="car_model_A4 <= 0.5\nsquared_error = 358569528.1\nsamples = 91\nvalue = 47439.3"] ;
299 -> 300 ;
301 [label="car_model_Senta fe <= 0.5\nsquared_error = 368935540.1\nsamples = 90\nvalue = 47511.0"] ;
300 -> 301 ;
302 [label="car_model_CTS <= 0.5\nsquared_error = 398982098.7\nsamples = 84\nvalue = 47891.1"] ;
301 -> 302 ;
303 [label="car_model_XF <= 0.5\nsquared_error = 402753846.4\nsamples = 82\nvalue = 48102.5"] ;
302 -> 303 ;
304 [label="car_brand_Renault <= 0.5\nsquared_error = 405314049.6\nsamples = 81\nvalue = 48181.8"] ;
303 -> 304 ;
305 [label="car_model_A5 <= 0.5\nsquared_error = 395560251.9\nsamples = 77\nvalue = 49202.6"] ;
304 -> 305 ;
306 [label="car_model_GL-Class <= 0.5\nsquared_error = 403753817.8\nsamples = 76\nvalue = 49446.9"] ;
305 -> 306 ;
307 [label="car_brand_Chevrolet <= 0.5\nsquared_error = 409686794.9\nsamples = 75\nvalue = 49292.8"] ;
306 -> 307 ;
308 [label="car_brand_GMC <= 0.5\nsquared_error = 521859861.6\nsamples = 50\nvalue = 46911.8"] ;
307 -> 308 ;
309 [label="car_model_CC <= 0.5\nsquared_error = 665974480.2\nsamples = 34\nvalue = 45782.6"] ;
308 -> 309 ;
310 [label="car_model_The 3 <= 0.5\nsquared_error = 678843950.6\nsamples = 33\nvalue = 45577.8"] ;
309 -> 310 ;
311 [label="car_model_LS <= 0.5\nsquared_error = 719702381.0\nsamples = 30\nvalue = 45500.0"] ;
310 -> 311 ;
312 [label="car_model_Q5 <= 0.5\nsquared_error = 598582391.4\nsamples = 29\nvalue = 43682.9"] ;
311 -> 312 ;
313 [label="car_model_Sentra <= 0.5\nsquared_error = 609425000.0\nsamples = 28\nvalue = 44000.0"] ;
312 -> 313 ;
314 [label="car_brand_Hyundai <= 0.5\nsquared_error = 607950690.3\nsamples = 27\nvalue = 44653.8"] ;
313 -> 314 ;
315 [label="car_brand_Nissan <= 0.5\nsquared_error = 640598765.4\nsamples = 20\nvalue = 53055.6"] ;
314 -> 315 ;
316 [label="car_model_CT-S <= 0.5\nsquared_error = 652562500.0\nsamples = 13\nvalue = 59750.0"] ;
315 -> 316 ;
317 [label="car_driven <= 209373.0\nsquared_error = 782098214.3\nsamples = 11\nvalue = 63250.0"] ;
316 -> 317 ;
318 [label="car_model_X5 <= 0.5\nsquared_error = 508595041.3\nsamples = 9\nvalue = 73363.6"] ;
317 -> 318 ;
319 [label="car_model_ES <= 0.5\nsquared_error = 319283950.6\nsamples = 7\nvalue = 80777.8"] ;
318 -> 319 ;
320 [label="car_model_year <= 2012.0\nsquared_error = 360693877.6\nsamples = 5\nvalue = 83857.1"] ;
319 -> 320 ;
321 [label="squared_error = 0.0\nsamples = 1\nvalue = 100000.0"] ;
320 -> 321 ;
322 [label="car_model_5 <= 0.5\nsquared_error = 359040000.0\nsamples = 4\nvalue = 77400.0"] ;
320 -> 322 ;
323 [label="car_driven <= 128500.0\nsquared_error = 200000000.0\nsamples = 2\nvalue = 90000.0"] ;
322 -> 323 ;
324 [label="squared_error = 0.0\nsamples = 1\nvalue = 110000.0"] ;
323 -> 324 ;
325 [label="squared_error = 0.0\nsamples = 1\nvalue = 80000.0"] ;
323 -> 325 ;
326 [label="car_driven <= 150873.0\nsquared_error = 2250000.0\nsamples = 2\nvalue = 58500.0"] ;
322 -> 326 ;
327 [label="squared_error = 0.0\nsamples = 1\nvalue = 60000.0"] ;
326 -> 327 ;
328 [label="squared_error = 0.0\nsamples = 1\nvalue = 57000.0"] ;
326 -> 328 ;
329 [label="car_driven <= 100119.5\nsquared_error = 25000000.0\nsamples = 2\nvalue = 70000.0"] ;
319 -> 329 ;
330 [label="squared_error = 0.0\nsamples = 1\nvalue = 65000.0"] ;
329 -> 330 ;
331 [label="squared_error = 0.0\nsamples = 1\nvalue = 75000.0"] ;
329 -> 331 ;
332 [label="squared_error = 0.0\nsamples = 2\nvalue = 40000.0"] ;
318 -> 332 ;
333 [label="car_driven <= 224750.0\nsquared_error = 34722222.2\nsamples = 2\nvalue = 26166.7"] ;
317 -> 333 ;
334 [label="squared_error = 0.0\nsamples = 1\nvalue = 22000.0"] ;
333 -> 334 ;
335 [label="squared_error = 0.0\nsamples = 1\nvalue = 34500.0"] ;
333 -> 335 ;
336 [label="car_driven <= 103500.0\nsquared_error = 6250000.0\nsamples = 2\nvalue = 47500.0"] ;
316 -> 336 ;
337 [label="squared_error = 0.0\nsamples = 1\nvalue = 50000.0"] ;
336 -> 337 ;
338 [label="squared_error = 0.0\nsamples = 1\nvalue = 45000.0"] ;
336 -> 338 ;
339 [label="car_model_X-Terra <= 0.5\nsquared_error = 347777777.8\nsamples = 7\nvalue = 39666.7"] ;
315 -> 339 ;
340 [label="car_model_Altima <= 0.5\nsquared_error = 72122449.0\nsamples = 5\nvalue = 30857.1"] ;
339 -> 340 ;
341 [label="car_model_Juke <= 0.5\nsquared_error = 57040000.0\nsamples = 4\nvalue = 34400.0"] ;
340 -> 341 ;
342 [label="car_model_Maxima <= 0.5\nsquared_error = 6250000.0\nsamples = 2\nvalue = 42500.0"] ;
341 -> 342 ;
343 [label="squared_error = 0.0\nsamples = 1\nvalue = 45000.0"] ;
342 -> 343 ;
344 [label="squared_error = 0.0\nsamples = 1\nvalue = 40000.0"] ;
342 -> 344 ;
345 [label="car_driven <= 146500.0\nsquared_error = 18000000.0\nsamples = 2\nvalue = 29000.0"] ;
341 -> 345 ;
346 [label="squared_error = 0.0\nsamples = 1\nvalue = 35000.0"] ;
345 -> 346 ;
347 [label="squared_error = 0.0\nsamples = 1\nvalue = 26000.0"] ;
345 -> 347 ;
348 [label="squared_error = 0.0\nsamples = 1\nvalue = 22000.0"] ;
340 -> 348 ;
349 [label="car_driven <= 114000.0\nsquared_error = 90250000.0\nsamples = 2\nvalue = 70500.0"] ;
339 -> 349 ;
350 [label="squared_error = 0.0\nsamples = 1\nvalue = 61000.0"] ;
349 -> 350 ;
351 [label="squared_error = 0.0\nsamples = 1\nvalue = 80000.0"] ;
349 -> 351 ;
352 [label="car_driven <= 361.5\nsquared_error = 18312500.0\nsamples = 7\nvalue = 25750.0"] ;
314 -> 352 ;
353 [label="squared_error = 0.0\nsamples = 1\nvalue = 35000.0"] ;
352 -> 353 ;
354 [label="car_model_year <= 2011.5\nsquared_error = 1440000.0\nsamples = 6\nvalue = 23900.0"] ;
352 -> 354 ;
355 [label="squared_error = 0.0\nsamples = 1\nvalue = 21000.0"] ;
354 -> 355 ;
356 [label="car_model_Veloster <= 0.5\nsquared_error = 561728.4\nsamples = 5\nvalue = 24222.2"] ;
354 -> 356 ;
357 [label="squared_error = 0.0\nsamples = 1\nvalue = 24000.0"] ;
356 -> 357 ;
358 [label="car_driven <= 86337.5\nsquared_error = 704081.6\nsamples = 4\nvalue = 24285.7"] ;
356 -> 358 ;
359 [label="squared_error = 0.0\nsamples = 1\nvalue = 23000.0"] ;
358 -> 359 ;
360 [label="car_model_year <= 2012.5\nsquared_error = 500000.0\nsamples = 3\nvalue = 24500.0"] ;
358 -> 360 ;
361 [label="squared_error = 0.0\nsamples = 1\nvalue = 23500.0"] ;
360 -> 361 ;
362 [label="squared_error = 0.0\nsamples = 2\nvalue = 25000.0"] ;
360 -> 362 ;
363 [label="squared_error = 0.0\nsamples = 1\nvalue = 18500.0"] ;
313 -> 363 ;
364 [label="squared_error = 0.0\nsamples = 1\nvalue = 31000.0"] ;
312 -> 364 ;
365 [label="squared_error = 0.0\nsamples = 1\nvalue = 120000.0"] ;
311 -> 365 ;
366 [label="car_driven <= 79000.0\nsquared_error = 105555555.6\nsamples = 3\nvalue = 46666.7"] ;
310 -> 366 ;
367 [label="squared_error = 0.0\nsamples = 1\nvalue = 35000.0"] ;
366 -> 367 ;
368 [label="car_model_year <= 2013.5\nsquared_error = 56250000.0\nsamples = 2\nvalue = 52500.0"] ;
366 -> 368 ;
369 [label="squared_error = 0.0\nsamples = 1\nvalue = 45000.0"] ;
368 -> 369 ;
370 [label="squared_error = 0.0\nsamples = 1\nvalue = 60000.0"] ;
368 -> 370 ;
371 [label="squared_error = 0.0\nsamples = 1\nvalue = 55000.0"] ;
309 -> 371 ;
372 [label="car_model_year <= 2013.5\nsquared_error = 212289256.2\nsamples = 16\nvalue = 49272.7"] ;
308 -> 372 ;
373 [label="car_model_Terrain <= 0.5\nsquared_error = 22244898.0\nsamples = 12\nvalue = 42428.6"] ;
372 -> 373 ;
374 [label="car_model_Acadia <= 0.5\nsquared_error = 19384615.4\nsamples = 11\nvalue = 43000.0"] ;
373 -> 374 ;
375 [label="car_model_year <= 2012.5\nsquared_error = 22410000.0\nsamples = 8\nvalue = 43300.0"] ;
374 -> 375 ;
376 [label="car_model_year <= 2011.5\nsquared_error = 30244898.0\nsamples = 6\nvalue = 42571.4"] ;
375 -> 376 ;
377 [label="car_driven <= 232000.0\nsquared_error = 34000000.0\nsamples = 5\nvalue = 43000.0"] ;
376 -> 377 ;
378 [label="car_driven <= 171500.0\nsquared_error = 5555555.6\nsamples = 3\nvalue = 48333.3"] ;
377 -> 378 ;
379 [label="squared_error = 0.0\nsamples = 2\nvalue = 50000.0"] ;
378 -> 379 ;
380 [label="squared_error = 0.0\nsamples = 1\nvalue = 45000.0"] ;
378 -> 380 ;
381 [label="car_driven <= 252500.0\nsquared_error = 5555555.6\nsamples = 2\nvalue = 37666.7"] ;
377 -> 381 ;
382 [label="squared_error = 0.0\nsamples = 1\nvalue = 36000.0"] ;
381 -> 382 ;
383 [label="squared_error = 0.0\nsamples = 1\nvalue = 41000.0"] ;
381 -> 383 ;
384 [label="squared_error = 0.0\nsamples = 1\nvalue = 40000.0"] ;
376 -> 384 ;
385 [label="squared_error = 0.0\nsamples = 2\nvalue = 45000.0"] ;
375 -> 385 ;
386 [label="car_driven <= 66250.0\nsquared_error = 8000000.0\nsamples = 3\nvalue = 42000.0"] ;
374 -> 386 ;
387 [label="squared_error = 0.0\nsamples = 1\nvalue = 46000.0"] ;
386 -> 387 ;
388 [label="squared_error = 0.0\nsamples = 2\nvalue = 40000.0"] ;
386 -> 388 ;
389 [label="squared_error = 0.0\nsamples = 1\nvalue = 35000.0"] ;
373 -> 389 ;
390 [label="car_model_Acadia <= 0.5\nsquared_error = 319437500.0\nsamples = 4\nvalue = 61250.0"] ;
372 -> 390 ;
391 [label="car_model_Terrain <= 0.5\nsquared_error = 363346938.8\nsamples = 3\nvalue = 61714.3"] ;
390 -> 391 ;
392 [label="car_driven <= 59117.5\nsquared_error = 174222222.2\nsamples = 2\nvalue = 81333.3"] ;
391 -> 392 ;
393 [label="squared_error = 0.0\nsamples = 1\nvalue = 72000.0"] ;
392 -> 393 ;
394 [label="squared_error = 0.0\nsamples = 1\nvalue = 100000.0"] ;
392 -> 394 ;
395 [label="squared_error = 0.0\nsamples = 1\nvalue = 47000.0"] ;
391 -> 395 ;
396 [label="squared_error = 0.0\nsamples = 1\nvalue = 58000.0"] ;
390 -> 396 ;
397 [label="car_model_Aveo <= 0.5\nsquared_error = 209153596.5\nsamples = 25\nvalue = 53058.1"] ;
307 -> 397 ;
398 [label="car_model_Impala <= 0.5\nsquared_error = 134131766.8\nsamples = 23\nvalue = 55048.8"] ;
397 -> 398 ;
399 [label="car_model_year <= 2011.5\nsquared_error = 123613573.4\nsamples = 21\nvalue = 56289.5"] ;
398 -> 399 ;
400 [label="car_model_Tahoe <= 0.5\nsquared_error = 64000000.0\nsamples = 4\nvalue = 46000.0"] ;
399 -> 400 ;
401 [label="squared_error = 0.0\nsamples = 1\nvalue = 60000.0"] ;
400 -> 401 ;
402 [label="car_driven <= 289500.0\nsquared_error = 18750000.0\nsamples = 3\nvalue = 42500.0"] ;
400 -> 402 ;
403 [label="squared_error = 0.0\nsamples = 2\nvalue = 40000.0"] ;
402 -> 403 ;
404 [label="squared_error = 0.0\nsamples = 1\nvalue = 50000.0"] ;
402 -> 404 ;
405 [label="car_model_Tahoe <= 0.5\nsquared_error = 114174012.9\nsamples = 17\nvalue = 57848.5"] ;
399 -> 405 ;
406 [label="squared_error = 0.0\nsamples = 1\nvalue = 69000.0"] ;
405 -> 406 ;
407 [label="car_model_year <= 2013.5\nsquared_error = 113734375.0\nsamples = 16\nvalue = 57500.0"] ;
405 -> 407 ;
408 [label="car_model_year <= 2012.5\nsquared_error = 116395941.7\nsamples = 15\nvalue = 57677.4"] ;
407 -> 408 ;
409 [label="car_driven <= 175192.5\nsquared_error = 160878684.8\nsamples = 8\nvalue = 58047.6"] ;
408 -> 409 ;
410 [label="car_driven <= 30640.5\nsquared_error = 43359375.0\nsamples = 3\nvalue = 73125.0"] ;
409 -> 410 ;
411 [label="squared_error = 0.0\nsamples = 1\nvalue = 65000.0"] ;
410 -> 411 ;
412 [label="car_driven <= 80500.0\nsquared_error = 6000000.0\nsamples = 2\nvalue = 78000.0"] ;
410 -> 412 ;
413 [label="squared_error = 0.0\nsamples = 1\nvalue = 80000.0"] ;
412 -> 413 ;
414 [label="squared_error = 0.0\nsamples = 1\nvalue = 75000.0"] ;
412 -> 414 ;
415 [label="car_driven <= 298500.0\nsquared_error = 7215976.3\nsamples = 5\nvalue = 48769.2"] ;
409 -> 415 ;
416 [label="car_driven <= 273692.5\nsquared_error = 4132653.1\nsamples = 2\nvalue = 50714.3"] ;
415 -> 416 ;
417 [label="squared_error = 0.0\nsamples = 1\nvalue = 47500.0"] ;
416 -> 417 ;
418 [label="squared_error = 0.0\nsamples = 1\nvalue = 52000.0"] ;
416 -> 418 ;
419 [label="car_driven <= 326500.0\nsquared_error = 1250000.0\nsamples = 3\nvalue = 46500.0"] ;
415 -> 419 ;
420 [label="car_driven <= 313000.0\nsquared_error = 187500.0\nsamples = 2\nvalue = 47250.0"] ;
419 -> 420 ;
421 [label="squared_error = 0.0\nsamples = 1\nvalue = 48000.0"] ;
420 -> 421 ;
422 [label="squared_error = 0.0\nsamples = 1\nvalue = 47000.0"] ;
420 -> 422 ;
423 [label="squared_error = 0.0\nsamples = 1\nvalue = 45000.0"] ;
419 -> 423 ;
424 [label="car_driven <= 229628.5\nsquared_error = 22090000.0\nsamples = 7\nvalue = 56900.0"] ;
408 -> 424 ;
425 [label="car_driven <= 206561.5\nsquared_error = 3673469.4\nsamples = 4\nvalue = 58428.6"] ;
424 -> 425 ;
426 [label="car_driven <= 200933.0\nsquared_error = 888888.9\nsamples = 3\nvalue = 56333.3"] ;
425 -> 426 ;
427 [label="squared_error = 1000000.0\nsamples = 2\nvalue = 56000.0"] ;
426 -> 427 ;
428 [label="squared_error = 0.0\nsamples = 1\nvalue = 57000.0"] ;
426 -> 428 ;
429 [label="squared_error = 0.0\nsamples = 1\nvalue = 60000.0"] ;
425 -> 429 ;
430 [label="car_driven <= 331500.0\nsquared_error = 46888888.9\nsamples = 3\nvalue = 53333.3"] ;
424 -> 430 ;
431 [label="car_driven <= 274000.0\nsquared_error = 250000.0\nsamples = 2\nvalue = 48500.0"] ;
430 -> 431 ;
432 [label="squared_error = 0.0\nsamples = 1\nvalue = 49000.0"] ;
431 -> 432 ;
433 [label="squared_error = 0.0\nsamples = 1\nvalue = 48000.0"] ;
431 -> 433 ;
434 [label="squared_error = 0.0\nsamples = 1\nvalue = 63000.0"] ;
430 -> 434 ;
435 [label="squared_error = 0.0\nsamples = 1\nvalue = 52000.0"] ;
407 -> 435 ;
436 [label="car_driven <= 94590.0\nsquared_error = 888888.9\nsamples = 2\nvalue = 39333.3"] ;
398 -> 436 ;
437 [label="squared_error = 0.0\nsamples = 1\nvalue = 38000.0"] ;
436 -> 437 ;
438 [label="squared_error = 0.0\nsamples = 1\nvalue = 40000.0"] ;
436 -> 438 ;
439 [label="car_driven <= 130499.5\nsquared_error = 562500.0\nsamples = 2\nvalue = 12250.0"] ;
397 -> 439 ;
440 [label="squared_error = 0.0\nsamples = 1\nvalue = 13000.0"] ;
439 -> 440 ;
441 [label="squared_error = 0.0\nsamples = 1\nvalue = 11500.0"] ;
439 -> 441 ;
442 [label="squared_error = 0.0\nsamples = 1\nvalue = 58000.0"] ;
306 -> 442 ;
443 [label="squared_error = 0.0\nsamples = 1\nvalue = 40000.0"] ;
305 -> 443 ;
444 [label="car_model_year <= 2013.0\nsquared_error = 46600000.0\nsamples = 4\nvalue = 24500.0"] ;
304 -> 444 ;
445 [label="squared_error = 0.0\nsamples = 1\nvalue = 20000.0"] ;
444 -> 445 ;
446 [label="car_model_Koleos <= 0.5\nsquared_error = 51921875.0\nsamples = 3\nvalue = 25625.0"] ;
444 -> 446 ;
447 [label="squared_error = 0.0\nsamples = 1\nvalue = 14500.0"] ;
446 -> 447 ;
448 [label="car_driven <= 137100.0\nsquared_error = 14222222.2\nsamples = 2\nvalue = 29333.3"] ;
446 -> 448 ;
449 [label="squared_error = 0.0\nsamples = 1\nvalue = 32000.0"] ;
448 -> 449 ;
450 [label="squared_error = 0.0\nsamples = 1\nvalue = 24000.0"] ;
448 -> 450 ;
451 [label="squared_error = 0.0\nsamples = 1\nvalue = 38500.0"] ;
303 -> 451 ;
452 [label="squared_error = 0.0\nsamples = 2\nvalue = 35000.0"] ;
302 -> 452 ;
453 [label="car_driven <= 198710.5\nsquared_error = 41534722.2\nsamples = 6\nvalue = 43583.3"] ;
301 -> 453 ;
454 [label="car_driven <= 133000.0\nsquared_error = 1836734.7\nsamples = 3\nvalue = 39857.1"] ;
453 -> 454 ;
455 [label="squared_error = 0.0\nsamples = 1\nvalue = 42000.0"] ;
454 -> 455 ;
456 [label="squared_error = 0.0\nsamples = 2\nvalue = 39000.0"] ;
454 -> 456 ;
457 [label="car_driven <= 219210.5\nsquared_error = 50460000.0\nsamples = 3\nvalue = 48800.0"] ;
453 -> 457 ;
458 [label="squared_error = 0.0\nsamples = 1\nvalue = 57500.0"] ;
457 -> 458 ;
459 [label="squared_error = 0.0\nsamples = 2\nvalue = 43000.0"] ;
457 -> 459 ;
460 [label="squared_error = 0.0\nsamples = 1\nvalue = 45000.0"] ;
300 -> 460 ;
461 [label="squared_error = 0.0\nsamples = 1\nvalue = 49500.0"] ;
299 -> 461 ;
462 [label="car_driven <= 58057.5\nsquared_error = 272222222.2\nsamples = 2\nvalue = 76666.7"] ;
298 -> 462 ;
463 [label="squared_error = 0.0\nsamples = 1\nvalue = 65000.0"] ;
462 -> 463 ;
464 [label="squared_error = 0.0\nsamples = 1\nvalue = 100000.0"] ;
462 -> 464 ;
465 [label="car_driven <= 80000.0\nsquared_error = 155171875.0\nsamples = 9\nvalue = 38125.0"] ;
297 -> 465 ;
466 [label="squared_error = 0.0\nsamples = 1\nvalue = 14000.0"] ;
465 -> 466 ;
467 [label="car_model_CX9 <= 0.5\nsquared_error = 111557851.2\nsamples = 8\nvalue = 40318.2"] ;
465 -> 467 ;
468 [label="car_model_6 <= 0.5\nsquared_error = 146122449.0\nsamples = 4\nvalue = 38142.9"] ;
467 -> 468 ;
469 [label="squared_error = 0.0\nsamples = 1\nvalue = 11000.0"] ;
468 -> 469 ;
470 [label="car_driven <= 217500.0\nsquared_error = 27222222.2\nsamples = 3\nvalue = 42666.7"] ;
468 -> 470 ;
471 [label="squared_error = 0.0\nsamples = 2\nvalue = 45000.0"] ;
470 -> 471 ;
472 [label="squared_error = 0.0\nsamples = 1\nvalue = 31000.0"] ;
470 -> 472 ;
473 [label="car_driven <= 338951.5\nsquared_error = 28296875.0\nsamples = 4\nvalue = 44125.0"] ;
467 -> 473 ;
474 [label="car_driven <= 242451.5\nsquared_error = 15166666.7\nsamples = 3\nvalue = 46500.0"] ;
473 -> 474 ;
475 [label="car_driven <= 159000.0\nsquared_error = 4000000.0\nsamples = 2\nvalue = 44000.0"] ;
474 -> 475 ;
476 [label="squared_error = 0.0\nsamples = 1\nvalue = 42000.0"] ;
475 -> 476 ;
477 [label="squared_error = 0.0\nsamples = 1\nvalue = 46000.0"] ;
475 -> 477 ;
478 [label="squared_error = 0.0\nsamples = 1\nvalue = 51500.0"] ;
474 -> 478 ;
479 [label="squared_error = 0.0\nsamples = 1\nvalue = 37000.0"] ;
473 -> 479 ;
480 [label="squared_error = 0.0\nsamples = 1\nvalue = 60000.0"] ;
296 -> 480 ;
481 [label="car_driven <= 117585.0\nsquared_error = 223171875.0\nsamples = 2\nvalue = 50875.0"] ;
139 -> 481 ;
482 [label="squared_error = 0.0\nsamples = 1\nvalue = 25000.0"] ;
481 -> 482 ;
483 [label="squared_error = 0.0\nsamples = 1\nvalue = 59500.0"] ;
481 -> 483 ;
484 [label="car_model_Ranger <= 0.5\nsquared_error = 117996990.2\nsamples = 26\nvalue = 32099.6"] ;
80 -> 484 ;
485 [label="car_model_Mustang <= 0.5\nsquared_error = 124066115.7\nsamples = 15\nvalue = 38454.5"] ;
484 -> 485 ;
486 [label="car_driven <= 228.0\nsquared_error = 71182222.2\nsamples = 10\nvalue = 36466.7"] ;
485 -> 486 ;
487 [label="car_model_year <= 2012.0\nsquared_error = 10687500.0\nsamples = 3\nvalue = 45250.0"] ;
486 -> 487 ;
488 [label="squared_error = 0.0\nsamples = 1\nvalue = 48000.0"] ;
487 -> 488 ;
489 [label="car_driven <= 153.0\nsquared_error = 6250000.0\nsamples = 2\nvalue = 42500.0"] ;
487 -> 489 ;
490 [label="squared_error = 0.0\nsamples = 1\nvalue = 40000.0"] ;
489 -> 490 ;
491 [label="squared_error = 0.0\nsamples = 1\nvalue = 45000.0"] ;
489 -> 491 ;
492 [label="car_model_year <= 2007.0\nsquared_error = 54925619.8\nsamples = 7\nvalue = 33272.7"] ;
486 -> 492 ;
493 [label="squared_error = 0.0\nsamples = 1\nvalue = 40000.0"] ;
492 -> 493 ;
494 [label="car_driven <= 88171.0\nsquared_error = 55440000.0\nsamples = 6\nvalue = 32600.0"] ;
492 -> 494 ;
495 [label="car_driven <= 306.0\nsquared_error = 34560000.0\nsamples = 2\nvalue = 30200.0"] ;
494 -> 495 ;
496 [label="squared_error = 0.0\nsamples = 1\nvalue = 35000.0"] ;
495 -> 496 ;
497 [label="squared_error = 0.0\nsamples = 1\nvalue = 23000.0"] ;
495 -> 497 ;
498 [label="car_model_year <= 2010.5\nsquared_error = 64800000.0\nsamples = 4\nvalue = 35000.0"] ;
494 -> 498 ;
499 [label="car_driven <= 273744.0\nsquared_error = 8000000.0\nsamples = 2\nvalue = 30000.0"] ;
498 -> 499 ;
500 [label="squared_error = 0.0\nsamples = 1\nvalue = 32000.0"] ;
499 -> 500 ;
501 [label="squared_error = 0.0\nsamples = 1\nvalue = 26000.0"] ;
499 -> 501 ;
502 [label="car_model_year <= 2011.5\nsquared_error = 56250000.0\nsamples = 2\nvalue = 42500.0"] ;
498 -> 502 ;
503 [label="squared_error = 0.0\nsamples = 1\nvalue = 50000.0"] ;
502 -> 503 ;
504 [label="squared_error = 0.0\nsamples = 1\nvalue = 35000.0"] ;
502 -> 504 ;
505 [label="car_model_year <= 2012.0\nsquared_error = 210775510.2\nsamples = 5\nvalue = 42714.3"] ;
485 -> 505 ;
506 [label="car_driven <= 295000.0\nsquared_error = 43222222.2\nsamples = 4\nvalue = 37333.3"] ;
505 -> 506 ;
507 [label="car_driven <= 84586.0\nsquared_error = 30960000.0\nsamples = 3\nvalue = 39200.0"] ;
506 -> 507 ;
508 [label="squared_error = 0.0\nsamples = 1\nvalue = 35000.0"] ;
507 -> 508 ;
509 [label="car_driven <= 229500.0\nsquared_error = 32000000.0\nsamples = 2\nvalue = 42000.0"] ;
507 -> 509 ;
510 [label="squared_error = 0.0\nsamples = 1\nvalue = 50000.0"] ;
509 -> 510 ;
511 [label="squared_error = 0.0\nsamples = 1\nvalue = 38000.0"] ;
509 -> 511 ;
512 [label="squared_error = 0.0\nsamples = 1\nvalue = 28000.0"] ;
506 -> 512 ;
513 [label="squared_error = 0.0\nsamples = 1\nvalue = 75000.0"] ;
505 -> 513 ;
514 [label="car_driven <= 49108.5\nsquared_error = 888888.9\nsamples = 11\nvalue = 24332.3"] ;
484 -> 514 ;
515 [label="squared_error = 0.0\nsamples = 7\nvalue = 24999.0"] ;
514 -> 515 ;
516 [label="squared_error = 0.0\nsamples = 4\nvalue = 22999.0"] ;
514 -> 516 ;
517 [label="squared_error = 285714.3\nsamples = 3\nvalue = 9000.0"] ;
79 -> 517 ;
518 [label="car_driven <= 81500.0\nsquared_error = 604960000.0\nsamples = 6\nvalue = 96800.0"] ;
78 -> 518 ;
519 [label="squared_error = 0.0\nsamples = 1\nvalue = 65000.0"] ;
518 -> 519 ;
520 [label="car_model_Cayenne Turbo GTS <= 0.5\nsquared_error = 245102040.8\nsamples = 5\nvalue = 110428.6"] ;
518 -> 520 ;
521 [label="car_driven <= 113000.0\nsquared_error = 331440000.0\nsamples = 4\nvalue = 108600.0"] ;
520 -> 521 ;
522 [label="squared_error = 0.0\nsamples = 1\nvalue = 99000.0"] ;
521 -> 522 ;
523 [label="car_model_Panamera <= 0.5\nsquared_error = 450000000.0\nsamples = 3\nvalue = 115000.0"] ;
521 -> 523 ;
524 [label="car_driven <= 168500.0\nsquared_error = 506250000.0\nsamples = 2\nvalue = 122500.0"] ;
523 -> 524 ;
525 [label="squared_error = 0.0\nsamples = 1\nvalue = 145000.0"] ;
524 -> 525 ;
526 [label="squared_error = 0.0\nsamples = 1\nvalue = 100000.0"] ;
524 -> 526 ;
527 [label="squared_error = 0.0\nsamples = 1\nvalue = 100000.0"] ;
523 -> 527 ;
528 [label="squared_error = 0.0\nsamples = 1\nvalue = 115000.0"] ;
520 -> 528 ;
529 [label="car_driven <= 197000.0\nsquared_error = 1811440000.0\nsamples = 4\nvalue = 70600.0"] ;
77 -> 529 ;
530 [label="car_model_year <= 2013.5\nsquared_error = 1600000000.0\nsamples = 2\nvalue = 110000.0"] ;
529 -> 530 ;
531 [label="squared_error = 0.0\nsamples = 1\nvalue = 150000.0"] ;
530 -> 531 ;
532 [label="squared_error = 0.0\nsamples = 1\nvalue = 70000.0"] ;
530 -> 532 ;
533 [label="car_model_year <= 2007.0\nsquared_error = 227555555.6\nsamples = 2\nvalue = 44333.3"] ;
529 -> 533 ;
534 [label="squared_error = 0.0\nsamples = 1\nvalue = 23000.0"] ;
533 -> 534 ;
535 [label="squared_error = 0.0\nsamples = 1\nvalue = 55000.0"] ;
533 -> 535 ;
536 [label="car_model_year <= 2009.0\nsquared_error = 1422960000.0\nsamples = 2\nvalue = 64200.0"] ;
76 -> 536 ;
537 [label="squared_error = 0.0\nsamples = 1\nvalue = 18000.0"] ;
536 -> 537 ;
538 [label="squared_error = 0.0\nsamples = 1\nvalue = 95000.0"] ;
536 -> 538 ;
539 [label="car_driven <= 252236.0\nsquared_error = 5555555.6\nsamples = 2\nvalue = 14666.7"] ;
75 -> 539 ;
540 [label="squared_error = 0.0\nsamples = 1\nvalue = 18000.0"] ;
539 -> 540 ;
541 [label="squared_error = 0.0\nsamples = 1\nvalue = 13000.0"] ;
539 -> 541 ;
542 [label="car_driven <= 184500.0\nsquared_error = 542222.2\nsamples = 3\nvalue = 8933.3"] ;
74 -> 542 ;
543 [label="squared_error = 0.0\nsamples = 1\nvalue = 9800.0"] ;
542 -> 543 ;
544 [label="car_model_year <= 2010.5\nsquared_error = 250000.0\nsamples = 2\nvalue = 8500.0"] ;
542 -> 544 ;
545 [label="squared_error = 0.0\nsamples = 1\nvalue = 8000.0"] ;
544 -> 545 ;
546 [label="squared_error = 0.0\nsamples = 1\nvalue = 9000.0"] ;
544 -> 546 ;
547 [label="car_driven <= 85169.5\nsquared_error = 15306429.7\nsamples = 6\nvalue = 71065.8"] ;
73 -> 547 ;
548 [label="squared_error = 0.0\nsamples = 5\nvalue = 72449.0"] ;
547 -> 548 ;
549 [label="squared_error = 0.0\nsamples = 1\nvalue = 60000.0"] ;
547 -> 549 ;
550 [label="squared_error = 0.0\nsamples = 1\nvalue = 10000.0"] ;
72 -> 550 ;
551 [label="car_driven <= 106616.5\nsquared_error = 4687500.0\nsamples = 2\nvalue = 73750.0"] ;
71 -> 551 ;
552 [label="squared_error = 0.0\nsamples = 1\nvalue = 75000.0"] ;
551 -> 552 ;
553 [label="squared_error = 0.0\nsamples = 1\nvalue = 70000.0"] ;
551 -> 553 ;
554 [label="car_transmission_Automatic <= 0.5\nsquared_error = 463801020.4\nsamples = 10\nvalue = 72357.1"] ;
70 -> 554 ;
555 [label="car_driven <= 53100.0\nsquared_error = 367918367.3\nsamples = 3\nvalue = 58714.3"] ;
554 -> 555 ;
556 [label="car_model_year <= 2011.0\nsquared_error = 25000000.0\nsamples = 2\nvalue = 75000.0"] ;
555 -> 556 ;
557 [label="squared_error = 0.0\nsamples = 1\nvalue = 70000.0"] ;
556 -> 557 ;
558 [label="squared_error = 0.0\nsamples = 1\nvalue = 80000.0"] ;
556 -> 558 ;
559 [label="squared_error = 0.0\nsamples = 1\nvalue = 37000.0"] ;
555 -> 559 ;
560 [label="car_driven <= 204000.0\nsquared_error = 187428571.4\nsamples = 7\nvalue = 86000.0"] ;
554 -> 560 ;
561 [label="squared_error = 0.0\nsamples = 2\nvalue = 105000.0"] ;
560 -> 561 ;
562 [label="car_model_year <= 2012.5\nsquared_error = 60240000.0\nsamples = 5\nvalue = 78400.0"] ;
560 -> 562 ;
563 [label="car_driven <= 363500.0\nsquared_error = 4222222.2\nsamples = 3\nvalue = 72333.3"] ;
562 -> 563 ;
564 [label="car_driven <= 277000.0\nsquared_error = 1000000.0\nsamples = 2\nvalue = 71000.0"] ;
563 -> 564 ;
565 [label="squared_error = 0.0\nsamples = 1\nvalue = 72000.0"] ;
564 -> 565 ;
566 [label="squared_error = 0.0\nsamples = 1\nvalue = 70000.0"] ;
564 -> 566 ;
567 [label="squared_error = 0.0\nsamples = 1\nvalue = 75000.0"] ;
563 -> 567 ;
568 [label="car_driven <= 385000.0\nsquared_error = 6250000.0\nsamples = 2\nvalue = 87500.0"] ;
562 -> 568 ;
569 [label="squared_error = 0.0\nsamples = 1\nvalue = 90000.0"] ;
568 -> 569 ;
570 [label="squared_error = 0.0\nsamples = 1\nvalue = 85000.0"] ;
568 -> 570 ;
571 [label="squared_error = 0.0\nsamples = 1\nvalue = 70000.0"] ;
69 -> 571 ;
572 [label="car_model_Grand <= 0.5\nsquared_error = 251079395.1\nsamples = 14\nvalue = 31413.0"] ;
68 -> 572 ;
573 [label="car_model_300C <= 0.5\nsquared_error = 262397210.7\nsamples = 13\nvalue = 31477.3"] ;
572 -> 573 ;
574 [label="car_model_year <= 2011.5\nsquared_error = 161210526.3\nsamples = 10\nvalue = 28500.0"] ;
573 -> 574 ;
575 [label="car_driven <= 50106.0\nsquared_error = 11475206.6\nsamples = 6\nvalue = 18454.5"] ;
574 -> 575 ;
576 [label="squared_error = 0.0\nsamples = 1\nvalue = 12500.0"] ;
575 -> 576 ;
577 [label="car_model_S300 <= 0.5\nsquared_error = 4395061.7\nsamples = 5\nvalue = 19777.8"] ;
575 -> 577 ;
578 [label="car_model_year <= 2008.5\nsquared_error = 1836734.7\nsamples = 4\nvalue = 18857.1"] ;
577 -> 578 ;
579 [label="car_driven <= 287500.0\nsquared_error = 1840000.0\nsamples = 3\nvalue = 18400.0"] ;
578 -> 579 ;
580 [label="car_model_C300 <= 0.5\nsquared_error = 222222.2\nsamples = 2\nvalue = 17333.3"] ;
579 -> 580 ;
581 [label="squared_error = 0.0\nsamples = 1\nvalue = 17000.0"] ;
580 -> 581 ;
582 [label="squared_error = 0.0\nsamples = 1\nvalue = 18000.0"] ;
580 -> 582 ;
583 [label="squared_error = 0.0\nsamples = 1\nvalue = 20000.0"] ;
579 -> 583 ;
584 [label="squared_error = 0.0\nsamples = 1\nvalue = 20000.0"] ;
578 -> 584 ;
585 [label="squared_error = 0.0\nsamples = 1\nvalue = 23000.0"] ;
577 -> 585 ;
586 [label="car_model_C300 <= 0.5\nsquared_error = 37558593.8\nsamples = 4\nvalue = 42312.5"] ;
574 -> 586 ;
587 [label="squared_error = 0.0\nsamples = 1\nvalue = 45000.0"] ;
586 -> 587 ;
588 [label="car_model_year <= 2012.5\nsquared_error = 46868055.6\nsamples = 3\nvalue = 41416.7"] ;
586 -> 588 ;
589 [label="car_driven <= 195000.0\nsquared_error = 93388888.9\nsamples = 2\nvalue = 41833.3"] ;
588 -> 589 ;
590 [label="squared_error = 0.0\nsamples = 1\nvalue = 55500.0"] ;
589 -> 590 ;
591 [label="squared_error = 0.0\nsamples = 1\nvalue = 35000.0"] ;
589 -> 591 ;
592 [label="squared_error = 0.0\nsamples = 1\nvalue = 41000.0"] ;
588 -> 592 ;
593 [label="car_model_year <= 2011.0\nsquared_error = 491555555.6\nsamples = 3\nvalue = 50333.3"] ;
573 -> 593 ;
594 [label="squared_error = 0.0\nsamples = 1\nvalue = 19000.0"] ;
593 -> 594 ;
595 [label="car_driven <= 63000.0\nsquared_error = 1000000.0\nsamples = 2\nvalue = 66000.0"] ;
593 -> 595 ;
596 [label="squared_error = 0.0\nsamples = 1\nvalue = 65000.0"] ;
595 -> 596 ;
597 [label="squared_error = 0.0\nsamples = 1\nvalue = 67000.0"] ;
595 -> 597 ;
598 [label="squared_error = 0.0\nsamples = 1\nvalue = 30000.0"] ;
572 -> 598 ;
599 [label="car_model_year <= 2011.5\nsquared_error = 182085138.3\nsamples = 40\nvalue = 50442.9"] ;
67 -> 599 ;
600 [label="car_driven <= 217092.5\nsquared_error = 20000000.0\nsamples = 4\nvalue = 22666.7"] ;
599 -> 600 ;
601 [label="squared_error = 0.0\nsamples = 2\nvalue = 20000.0"] ;
600 -> 601 ;
602 [label="car_model_year <= 2010.5\nsquared_error = 25000000.0\nsamples = 2\nvalue = 26000.0"] ;
600 -> 602 ;
603 [label="squared_error = 0.0\nsamples = 1\nvalue = 21000.0"] ;
602 -> 603 ;
604 [label="squared_error = 0.0\nsamples = 1\nvalue = 31000.0"] ;
602 -> 604 ;
605 [label="car_model_year <= 2012.5\nsquared_error = 56349407.4\nsamples = 36\nvalue = 55159.6"] ;
599 -> 605 ;
606 [label="squared_error = 0.0\nsamples = 7\nvalue = 44999.0"] ;
605 -> 606 ;
607 [label="car_model_year <= 2013.5\nsquared_error = 42439421.7\nsamples = 29\nvalue = 57237.9"] ;
605 -> 607 ;
608 [label="car_driven <= 51803.0\nsquared_error = 51315545.6\nsamples = 21\nvalue = 56382.4"] ;
607 -> 608 ;
609 [label="squared_error = 0.0\nsamples = 1\nvalue = 83500.0"] ;
608 -> 609 ;
610 [label="car_driven <= 121809.5\nsquared_error = 26853331.8\nsamples = 20\nvalue = 55447.3"] ;
608 -> 610 ;
611 [label="car_driven <= 100125.5\nsquared_error = 50144166.8\nsamples = 8\nvalue = 58165.8"] ;
610 -> 611 ;
612 [label="squared_error = 0.0\nsamples = 7\nvalue = 54999.0"] ;
611 -> 612 ;
613 [label="squared_error = 0.0\nsamples = 1\nvalue = 74000.0"] ;
611 -> 613 ;
614 [label="car_driven <= 148934.0\nsquared_error = 1513840.8\nsamples = 12\nvalue = 53528.4"] ;
610 -> 614 ;
615 [label="squared_error = 0.0\nsamples = 5\nvalue = 54999.0"] ;
614 -> 615 ;
616 [label="squared_error = 0.0\nsamples = 7\nvalue = 52499.0"] ;
614 -> 616 ;
617 [label="car_driven <= 71517.5\nsquared_error = 18490969.6\nsamples = 8\nvalue = 59070.9"] ;
607 -> 617 ;
618 [label="squared_error = 0.0\nsamples = 5\nvalue = 62999.0"] ;
617 -> 618 ;
619 [label="car_driven <= 120000.0\nsquared_error = 6122449.0\nsamples = 3\nvalue = 55142.9"] ;
617 -> 619 ;
620 [label="squared_error = 0.0\nsamples = 1\nvalue = 58000.0"] ;
619 -> 620 ;
621 [label="car_driven <= 154000.0\nsquared_error = 4000000.0\nsamples = 2\nvalue = 54000.0"] ;
619 -> 621 ;
622 [label="squared_error = 0.0\nsamples = 1\nvalue = 50000.0"] ;
621 -> 622 ;
623 [label="squared_error = 0.0\nsamples = 1\nvalue = 55000.0"] ;
621 -> 623 ;
624 [label="car_model_year <= 2012.0\nsquared_error = 37555555.6\nsamples = 2\nvalue = 33666.7"] ;
66 -> 624 ;
625 [label="squared_error = 0.0\nsamples = 1\nvalue = 38000.0"] ;
624 -> 625 ;
626 [label="squared_error = 0.0\nsamples = 1\nvalue = 25000.0"] ;
624 -> 626 ;
627 [label="car_model_year <= 2012.5\nsquared_error = 340086167.8\nsamples = 22\nvalue = 33238.1"] ;
65 -> 627 ;
628 [label="car_model_year <= 2009.0\nsquared_error = 111698573.1\nsamples = 16\nvalue = 23206.9"] ;
627 -> 628 ;
629 [label="car_driven <= 255000.0\nsquared_error = 27811224.5\nsamples = 9\nvalue = 13714.3"] ;
628 -> 629 ;
630 [label="car_driven <= 9050.0\nsquared_error = 55187500.0\nsamples = 3\nvalue = 17250.0"] ;
629 -> 630 ;
631 [label="squared_error = 0.0\nsamples = 1\nvalue = 7000.0"] ;
630 -> 631 ;
632 [label="car_model_year <= 2006.5\nsquared_error = 26888888.9\nsamples = 2\nvalue = 20666.7"] ;
630 -> 632 ;
633 [label="squared_error = 0.0\nsamples = 1\nvalue = 17000.0"] ;
632 -> 633 ;
634 [label="squared_error = 0.0\nsamples = 1\nvalue = 28000.0"] ;
632 -> 634 ;
635 [label="car_transmission_CVT <= 0.5\nsquared_error = 9860000.0\nsamples = 6\nvalue = 12300.0"] ;
629 -> 635 ;
636 [label="car_driven <= 345000.0\nsquared_error = 5413580.2\nsamples = 5\nvalue = 11555.6"] ;
635 -> 636 ;
637 [label="car_model_Civic <= 0.5\nsquared_error = 2312500.0\nsamples = 3\nvalue = 10250.0"] ;
636 -> 637 ;
638 [label="squared_error = 0.0\nsamples = 1\nvalue = 10000.0"] ;
637 -> 638 ;
639 [label="car_driven <= 280000.0\nsquared_error = 4500000.0\nsamples = 2\nvalue = 10500.0"] ;
637 -> 639 ;
640 [label="squared_error = 0.0\nsamples = 1\nvalue = 13500.0"] ;
639 -> 640 ;
641 [label="squared_error = 0.0\nsamples = 1\nvalue = 9000.0"] ;
639 -> 641 ;
642 [label="car_driven <= 420000.0\nsquared_error = 1388888.9\nsamples = 2\nvalue = 14166.7"] ;
636 -> 642 ;
643 [label="squared_error = 0.0\nsamples = 1\nvalue = 12500.0"] ;
642 -> 643 ;
644 [label="squared_error = 0.0\nsamples = 1\nvalue = 15000.0"] ;
642 -> 644 ;
645 [label="squared_error = 0.0\nsamples = 1\nvalue = 19000.0"] ;
635 -> 645 ;
646 [label="car_driven <= 173000.0\nsquared_error = 27395555.6\nsamples = 7\nvalue = 32066.7"] ;
628 -> 646 ;
647 [label="car_model_Accord <= 0.5\nsquared_error = 22640000.0\nsamples = 3\nvalue = 34600.0"] ;
646 -> 647 ;
648 [label="car_model_Crosstour <= 0.5\nsquared_error = 14222222.2\nsamples = 2\nvalue = 37666.7"] ;
647 -> 648 ;
649 [label="squared_error = 0.0\nsamples = 1\nvalue = 35000.0"] ;
648 -> 649 ;
650 [label="squared_error = 0.0\nsamples = 1\nvalue = 43000.0"] ;
648 -> 650 ;
651 [label="squared_error = 0.0\nsamples = 1\nvalue = 30000.0"] ;
647 -> 651 ;
652 [label="car_driven <= 225500.0\nsquared_error = 24960000.0\nsamples = 4\nvalue = 30800.0"] ;
646 -> 652 ;
653 [label="squared_error = 0.0\nsamples = 1\nvalue = 26000.0"] ;
652 -> 653 ;
654 [label="car_model_Accord <= 0.5\nsquared_error = 16000000.0\nsamples = 3\nvalue = 34000.0"] ;
652 -> 654 ;
655 [label="squared_error = 0.0\nsamples = 1\nvalue = 38000.0"] ;
654 -> 655 ;
656 [label="car_driven <= 275500.0\nsquared_error = 15360000.0\nsamples = 2\nvalue = 33200.0"] ;
654 -> 656 ;
657 [label="squared_error = 0.0\nsamples = 1\nvalue = 38000.0"] ;
656 -> 657 ;
658 [label="squared_error = 0.0\nsamples = 1\nvalue = 30000.0"] ;
656 -> 658 ;
659 [label="car_model_year <= 2013.5\nsquared_error = 124352071.0\nsamples = 6\nvalue = 55615.4"] ;
627 -> 659 ;
660 [label="squared_error = 0.0\nsamples = 1\nvalue = 42500.0"] ;
659 -> 660 ;
661 [label="car_driven <= 29607.5\nsquared_error = 119185763.9\nsamples = 5\nvalue = 56708.3"] ;
659 -> 661 ;
662 [label="squared_error = 0.0\nsamples = 1\nvalue = 45000.0"] ;
661 -> 662 ;
663 [label="car_driven <= 113600.0\nsquared_error = 110122500.0\nsamples = 4\nvalue = 59050.0"] ;
661 -> 663 ;
664 [label="car_driven <= 59100.0\nsquared_error = 4500000.0\nsamples = 2\nvalue = 73500.0"] ;
663 -> 664 ;
665 [label="squared_error = 0.0\nsamples = 1\nvalue = 72000.0"] ;
664 -> 665 ;
666 [label="squared_error = 0.0\nsamples = 1\nvalue = 76500.0"] ;
664 -> 666 ;
667 [label="car_driven <= 324000.0\nsquared_error = 27551020.4\nsamples = 2\nvalue = 52857.1"] ;
663 -> 667 ;
668 [label="squared_error = 0.0\nsamples = 1\nvalue = 55000.0"] ;
667 -> 668 ;
669 [label="squared_error = 0.0\nsamples = 1\nvalue = 40000.0"] ;
667 -> 669 ;
670 [label="car_model_year <= 2011.5\nsquared_error = 448549039.8\nsamples = 33\nvalue = 50314.8"] ;
64 -> 670 ;
671 [label="car_driven <= 311500.0\nsquared_error = 137733070.3\nsamples = 22\nvalue = 39897.4"] ;
670 -> 671 ;
672 [label="car_model_year <= 2003.5\nsquared_error = 66323731.1\nsamples = 13\nvalue = 36518.5"] ;
671 -> 672 ;
673 [label="squared_error = 0.0\nsamples = 1\nvalue = 10000.0"] ;
672 -> 673 ;
674 [label="car_driven <= 242500.0\nsquared_error = 40786982.2\nsamples = 12\nvalue = 37538.5"] ;
672 -> 674 ;
675 [label="car_driven <= 202.5\nsquared_error = 17900277.0\nsamples = 7\nvalue = 39315.8"] ;
674 -> 675 ;
676 [label="car_model_year <= 2007.0\nsquared_error = 1687500.0\nsamples = 2\nvalue = 42750.0"] ;
675 -> 676 ;
677 [label="squared_error = 0.0\nsamples = 1\nvalue = 45000.0"] ;
676 -> 677 ;
678 [label="squared_error = 0.0\nsamples = 1\nvalue = 42000.0"] ;
676 -> 678 ;
679 [label="car_driven <= 100131.0\nsquared_error = 18240000.0\nsamples = 5\nvalue = 38400.0"] ;
675 -> 679 ;
680 [label="car_model_year <= 2009.0\nsquared_error = 25000000.0\nsamples = 2\nvalue = 35000.0"] ;
679 -> 680 ;
681 [label="squared_error = 0.0\nsamples = 1\nvalue = 30000.0"] ;
680 -> 681 ;
682 [label="squared_error = 0.0\nsamples = 1\nvalue = 40000.0"] ;
680 -> 682 ;
683 [label="car_driven <= 217500.0\nsquared_error = 888888.9\nsamples = 3\nvalue = 40666.7"] ;
679 -> 683 ;
684 [label="car_model_year <= 2008.5\nsquared_error = 937500.0\nsamples = 2\nvalue = 40750.0"] ;
683 -> 684 ;
685 [label="squared_error = 0.0\nsamples = 1\nvalue = 42000.0"] ;
684 -> 685 ;
686 [label="squared_error = 0.0\nsamples = 1\nvalue = 40000.0"] ;
684 -> 686 ;
687 [label="squared_error = 0.0\nsamples = 1\nvalue = 40000.0"] ;
683 -> 687 ;
688 [label="car_model_year <= 2007.5\nsquared_error = 71061224.5\nsamples = 5\nvalue = 32714.3"] ;
674 -> 688 ;
689 [label="car_driven <= 301500.0\nsquared_error = 222222.2\nsamples = 2\nvalue = 35666.7"] ;
688 -> 689 ;
690 [label="squared_error = 0.0\nsamples = 1\nvalue = 35000.0"] ;
689 -> 690 ;
691 [label="squared_error = 0.0\nsamples = 1\nvalue = 36000.0"] ;
689 -> 691 ;
692 [label="car_driven <= 268000.0\nsquared_error = 112750000.0\nsamples = 3\nvalue = 30500.0"] ;
688 -> 692 ;
693 [label="squared_error = 0.0\nsamples = 1\nvalue = 22000.0"] ;
692 -> 693 ;
694 [label="car_driven <= 292500.0\nsquared_error = 81000000.0\nsamples = 2\nvalue = 39000.0"] ;
692 -> 694 ;
695 [label="squared_error = 0.0\nsamples = 1\nvalue = 48000.0"] ;
694 -> 695 ;
696 [label="squared_error = 0.0\nsamples = 1\nvalue = 30000.0"] ;
694 -> 696 ;
697 [label="car_driven <= 335000.0\nsquared_error = 214916666.7\nsamples = 9\nvalue = 47500.0"] ;
671 -> 697 ;
698 [label="squared_error = 42187500.0\nsamples = 2\nvalue = 61250.0"] ;
697 -> 698 ;
699 [label="car_model_year <= 2009.5\nsquared_error = 159484375.0\nsamples = 7\nvalue = 40625.0"] ;
697 -> 699 ;
700 [label="car_driven <= 363500.0\nsquared_error = 44500000.0\nsamples = 4\nvalue = 31000.0"] ;
699 -> 700 ;
701 [label="squared_error = 0.0\nsamples = 1\nvalue = 38000.0"] ;
700 -> 701 ;
702 [label="car_model_year <= 2005.0\nsquared_error = 37555555.6\nsamples = 3\nvalue = 28666.7"] ;
700 -> 702 ;
703 [label="squared_error = 0.0\nsamples = 1\nvalue = 33000.0"] ;
702 -> 703 ;
704 [label="car_driven <= 438500.0\nsquared_error = 42250000.0\nsamples = 2\nvalue = 26500.0"] ;
702 -> 704 ;
705 [label="squared_error = 0.0\nsamples = 1\nvalue = 20000.0"] ;
704 -> 705 ;
706 [label="squared_error = 0.0\nsamples = 1\nvalue = 33000.0"] ;
704 -> 706 ;
707 [label="car_model_year <= 2010.5\nsquared_error = 89187500.0\nsamples = 3\nvalue = 50250.0"] ;
699 -> 707 ;
708 [label="car_driven <= 365769.0\nsquared_error = 117555555.6\nsamples = 2\nvalue = 49666.7"] ;
707 -> 708 ;
709 [label="squared_error = 0.0\nsamples = 1\nvalue = 42000.0"] ;
708 -> 709 ;
710 [label="squared_error = 0.0\nsamples = 1\nvalue = 65000.0"] ;
708 -> 710 ;
711 [label="squared_error = 0.0\nsamples = 1\nvalue = 52000.0"] ;
707 -> 711 ;
712 [label="car_model_year <= 2013.5\nsquared_error = 240906666.7\nsamples = 11\nvalue = 77400.0"] ;
670 -> 712 ;
713 [label="car_driven <= 9850.0\nsquared_error = 256611570.2\nsamples = 8\nvalue = 73545.5"] ;
712 -> 713 ;
714 [label="car_driven <= 285.0\nsquared_error = 56888888.9\nsamples = 2\nvalue = 49666.7"] ;
713 -> 714 ;
715 [label="squared_error = 0.0\nsamples = 1\nvalue = 39000.0"] ;
714 -> 715 ;
716 [label="squared_error = 0.0\nsamples = 1\nvalue = 55000.0"] ;
714 -> 716 ;
717 [label="car_model_year <= 2012.5\nsquared_error = 37500000.0\nsamples = 6\nvalue = 82500.0"] ;
713 -> 717 ;
718 [label="car_driven <= 121000.0\nsquared_error = 4687500.0\nsamples = 3\nvalue = 78750.0"] ;
717 -> 718 ;
719 [label="squared_error = 0.0\nsamples = 2\nvalue = 80000.0"] ;
718 -> 719 ;
720 [label="squared_error = 0.0\nsamples = 1\nvalue = 75000.0"] ;
718 -> 720 ;
721 [label="car_driven <= 48200.0\nsquared_error = 42187500.0\nsamples = 3\nvalue = 86250.0"] ;
717 -> 721 ;
722 [label="squared_error = 0.0\nsamples = 1\nvalue = 95000.0"] ;
721 -> 722 ;
723 [label="car_driven <= 141500.0\nsquared_error = 22222222.2\nsamples = 2\nvalue = 83333.3"] ;
721 -> 723 ;
724 [label="squared_error = 0.0\nsamples = 1\nvalue = 80000.0"] ;
723 -> 724 ;
725 [label="squared_error = 0.0\nsamples = 1\nvalue = 90000.0"] ;
723 -> 725 ;
726 [label="car_driven <= 209500.0\nsquared_error = 44500000.0\nsamples = 3\nvalue = 88000.0"] ;
712 -> 726 ;
727 [label="car_driven <= 64000.0\nsquared_error = 5555555.6\nsamples = 2\nvalue = 91666.7"] ;
726 -> 727 ;
728 [label="squared_error = 0.0\nsamples = 1\nvalue = 95000.0"] ;
727 -> 728 ;
729 [label="squared_error = 0.0\nsamples = 1\nvalue = 90000.0"] ;
727 -> 729 ;
730 [label="squared_error = 0.0\nsamples = 1\nvalue = 77000.0"] ;
726 -> 730 ;
731 [label="car_model_Milan <= 0.5\nsquared_error = 29040000.0\nsamples = 3\nvalue = 20400.0"] ;
63 -> 731 ;
732 [label="squared_error = 0.0\nsamples = 2\nvalue = 16000.0"] ;
731 -> 732 ;
733 [label="squared_error = 0.0\nsamples = 1\nvalue = 27000.0"] ;
731 -> 733 ;
734 [label="car_model_year <= 2012.5\nsquared_error = 593117768.6\nsamples = 15\nvalue = 49863.6"] ;
62 -> 734 ;
735 [label="car_transmission_Automatic <= 0.5\nsquared_error = 135355371.9\nsamples = 6\nvalue = 30090.9"] ;
734 -> 735 ;
736 [label="squared_error = 0.0\nsamples = 1\nvalue = 47000.0"] ;
735 -> 736 ;
737 [label="car_model_Commander <= 0.5\nsquared_error = 117440000.0\nsamples = 5\nvalue = 28400.0"] ;
735 -> 737 ;
738 [label="car_driven <= 169000.0\nsquared_error = 90687500.0\nsamples = 4\nvalue = 31750.0"] ;
737 -> 738 ;
739 [label="squared_error = 0.0\nsamples = 1\nvalue = 25000.0"] ;
738 -> 739 ;
740 [label="car_driven <= 227500.0\nsquared_error = 90250000.0\nsamples = 3\nvalue = 38500.0"] ;
738 -> 740 ;
741 [label="squared_error = 0.0\nsamples = 1\nvalue = 47000.0"] ;
740 -> 741 ;
742 [label="car_model_Grand Cherokee <= 0.5\nsquared_error = 36000000.0\nsamples = 2\nvalue = 30000.0"] ;
740 -> 742 ;
743 [label="squared_error = 0.0\nsamples = 1\nvalue = 24000.0"] ;
742 -> 743 ;
744 [label="squared_error = 0.0\nsamples = 1\nvalue = 36000.0"] ;
742 -> 744 ;
745 [label="squared_error = 0.0\nsamples = 1\nvalue = 15000.0"] ;
737 -> 745 ;
746 [label="car_model_Grand <= 0.5\nsquared_error = 268958677.7\nsamples = 9\nvalue = 69636.4"] ;
734 -> 746 ;
747 [label="car_model_year <= 2013.5\nsquared_error = 224000000.0\nsamples = 8\nvalue = 74000.0"] ;
746 -> 747 ;
748 [label="car_driven <= 97500.0\nsquared_error = 28250000.0\nsamples = 3\nvalue = 85500.0"] ;
747 -> 748 ;
749 [label="squared_error = 0.0\nsamples = 1\nvalue = 77000.0"] ;
748 -> 749 ;
750 [label="car_driven <= 127000.0\nsquared_error = 5555555.6\nsamples = 2\nvalue = 88333.3"] ;
748 -> 750 ;
751 [label="squared_error = 0.0\nsamples = 1\nvalue = 90000.0"] ;
750 -> 751 ;
752 [label="squared_error = 0.0\nsamples = 1\nvalue = 85000.0"] ;
750 -> 752 ;
753 [label="car_model_Grand Cherokee <= 0.5\nsquared_error = 190160000.0\nsamples = 5\nvalue = 64800.0"] ;
747 -> 753 ;
754 [label="squared_error = 0.0\nsamples = 1\nvalue = 89000.0"] ;
753 -> 754 ;
755 [label="car_driven <= 204000.0\nsquared_error = 54687500.0\nsamples = 4\nvalue = 58750.0"] ;
753 -> 755 ;
756 [label="squared_error = 0.0\nsamples = 1\nvalue = 70000.0"] ;
755 -> 756 ;
757 [label="car_driven <= 239000.0\nsquared_error = 16666666.7\nsamples = 3\nvalue = 55000.0"] ;
755 -> 757 ;
758 [label="squared_error = 0.0\nsamples = 1\nvalue = 50000.0"] ;
757 -> 758 ;
759 [label="car_driven <= 257500.0\nsquared_error = 6250000.0\nsamples = 2\nvalue = 57500.0"] ;
757 -> 759 ;
760 [label="squared_error = 0.0\nsamples = 1\nvalue = 55000.0"] ;
759 -> 760 ;
761 [label="squared_error = 0.0\nsamples = 1\nvalue = 60000.0"] ;
759 -> 761 ;
762 [label="squared_error = 0.0\nsamples = 1\nvalue = 50000.0"] ;
746 -> 762 ;
763 [label="car_driven <= 287000.0\nsquared_error = 67020710.1\nsamples = 10\nvalue = 20807.7"] ;
61 -> 763 ;
764 [label="car_model_year <= 2007.5\nsquared_error = 49740000.0\nsamples = 4\nvalue = 27600.0"] ;
763 -> 764 ;
765 [label="squared_error = 0.0\nsamples = 1\nvalue = 18000.0"] ;
764 -> 765 ;
766 [label="car_driven <= 222500.0\nsquared_error = 33375000.0\nsamples = 3\nvalue = 30000.0"] ;
764 -> 766 ;
767 [label="car_driven <= 155500.0\nsquared_error = 6250000.0\nsamples = 2\nvalue = 24500.0"] ;
766 -> 767 ;
768 [label="squared_error = 0.0\nsamples = 1\nvalue = 22000.0"] ;
767 -> 768 ;
769 [label="squared_error = 0.0\nsamples = 1\nvalue = 27000.0"] ;
767 -> 769 ;
770 [label="squared_error = 0.0\nsamples = 1\nvalue = 35500.0"] ;
766 -> 770 ;
771 [label="car_model_year <= 2005.0\nsquared_error = 30964843.8\nsamples = 6\nvalue = 16562.5"] ;
763 -> 771 ;
772 [label="squared_error = 0.0\nsamples = 1\nvalue = 10000.0"] ;
771 -> 772 ;
773 [label="car_driven <= 369000.0\nsquared_error = 8200000.0\nsamples = 5\nvalue = 20500.0"] ;
771 -> 773 ;
774 [label="car_driven <= 319000.0\nsquared_error = 4666666.7\nsamples = 3\nvalue = 19000.0"] ;
773 -> 774 ;
775 [label="car_model_year <= 2010.0\nsquared_error = 6250000.0\nsamples = 2\nvalue = 19500.0"] ;
774 -> 775 ;
776 [label="squared_error = 0.0\nsamples = 1\nvalue = 17000.0"] ;
775 -> 776 ;
777 [label="squared_error = 0.0\nsamples = 1\nvalue = 22000.0"] ;
775 -> 777 ;
778 [label="squared_error = 0.0\nsamples = 1\nvalue = 18000.0"] ;
774 -> 778 ;
779 [label="car_model_year <= 2009.0\nsquared_error = 5062500.0\nsamples = 2\nvalue = 22750.0"] ;
773 -> 779 ;
780 [label="squared_error = 0.0\nsamples = 1\nvalue = 20500.0"] ;
779 -> 780 ;
781 [label="squared_error = 0.0\nsamples = 1\nvalue = 25000.0"] ;
779 -> 781 ;
782 [label="car_driven <= 140250.0\nsquared_error = 213671875.0\nsamples = 6\nvalue = 33625.0"] ;
60 -> 782 ;
783 [label="car_model_year <= 2013.5\nsquared_error = 56250000.0\nsamples = 2\nvalue = 56500.0"] ;
782 -> 783 ;
784 [label="squared_error = 0.0\nsamples = 1\nvalue = 64000.0"] ;
783 -> 784 ;
785 [label="squared_error = 0.0\nsamples = 1\nvalue = 49000.0"] ;
783 -> 785 ;
786 [label="car_driven <= 178000.0\nsquared_error = 33583333.3\nsamples = 4\nvalue = 26000.0"] ;
782 -> 786 ;
787 [label="squared_error = 0.0\nsamples = 1\nvalue = 18500.0"] ;
786 -> 787 ;
788 [label="car_model_year <= 2012.5\nsquared_error = 8187500.0\nsamples = 3\nvalue = 29750.0"] ;
786 -> 788 ;
789 [label="car_driven <= 279500.0\nsquared_error = 6250000.0\nsamples = 2\nvalue = 27500.0"] ;
788 -> 789 ;
790 [label="squared_error = 0.0\nsamples = 1\nvalue = 30000.0"] ;
789 -> 790 ;
791 [label="squared_error = 0.0\nsamples = 1\nvalue = 25000.0"] ;
789 -> 791 ;
792 [label="squared_error = 0.0\nsamples = 1\nvalue = 32000.0"] ;
788 -> 792 ;
793 [label="squared_error = 0.0\nsamples = 1\nvalue = 15000.0"] ;
59 -> 793 ;
794 [label="car_driven <= 213000.0\nsquared_error = 14222222.2\nsamples = 2\nvalue = 62333.3"] ;
58 -> 794 ;
795 [label="squared_error = 0.0\nsamples = 1\nvalue = 57000.0"] ;
794 -> 795 ;
796 [label="squared_error = 0.0\nsamples = 1\nvalue = 65000.0"] ;
794 -> 796 ;
797 [label="squared_error = 0.0\nsamples = 1\nvalue = 15000.0"] ;
57 -> 797 ;
798 [label="car_brand_Hyundai <= 0.5\nsquared_error = 72000000.0\nsamples = 2\nvalue = 19000.0"] ;
56 -> 798 ;
799 [label="squared_error = 0.0\nsamples = 1\nvalue = 7000.0"] ;
798 -> 799 ;
800 [label="squared_error = 0.0\nsamples = 1\nvalue = 25000.0"] ;
798 -> 800 ;
801 [label="car_model_3008 <= 0.5\nsquared_error = 33277777.8\nsamples = 5\nvalue = 19166.7"] ;
55 -> 801 ;
802 [label="car_model_508 <= 0.5\nsquared_error = 58900000.0\nsamples = 4\nvalue = 18500.0"] ;
801 -> 802 ;
803 [label="car_transmission_Manual <= 0.5\nsquared_error = 12375000.0\nsamples = 3\nvalue = 15000.0"] ;
802 -> 803 ;
804 [label="car_driven <= 85079.5\nsquared_error = 9388888.9\nsamples = 2\nvalue = 16333.3"] ;
803 -> 804 ;
805 [label="squared_error = 0.0\nsamples = 1\nvalue = 12000.0"] ;
804 -> 805 ;
806 [label="squared_error = 0.0\nsamples = 1\nvalue = 18500.0"] ;
804 -> 806 ;
807 [label="squared_error = 0.0\nsamples = 1\nvalue = 11000.0"] ;
803 -> 807 ;
808 [label="squared_error = 0.0\nsamples = 1\nvalue = 32500.0"] ;
802 -> 808 ;
809 [label="squared_error = 0.0\nsamples = 1\nvalue = 20000.0"] ;
801 -> 809 ;
810 [label="car_model_year <= 2010.0\nsquared_error = 40801020.4\nsamples = 9\nvalue = 29357.1"] ;
54 -> 810 ;
811 [label="squared_error = 0.0\nsamples = 1\nvalue = 18000.0"] ;
810 -> 811 ;
812 [label="car_driven <= 197750.0\nsquared_error = 33254437.9\nsamples = 8\nvalue = 30230.8"] ;
810 -> 812 ;
813 [label="car_model_year <= 2011.5\nsquared_error = 34160000.0\nsamples = 3\nvalue = 34800.0"] ;
812 -> 813 ;
814 [label="car_driven <= 101500.0\nsquared_error = 26888888.9\nsamples = 2\nvalue = 31333.3"] ;
813 -> 814 ;
815 [label="squared_error = 0.0\nsamples = 1\nvalue = 35000.0"] ;
814 -> 815 ;
816 [label="squared_error = 0.0\nsamples = 1\nvalue = 24000.0"] ;
814 -> 816 ;
817 [label="squared_error = 0.0\nsamples = 1\nvalue = 40000.0"] ;
813 -> 817 ;
818 [label="car_model_year <= 2011.5\nsquared_error = 11484375.0\nsamples = 5\nvalue = 27375.0"] ;
812 -> 818 ;
819 [label="car_driven <= 275500.0\nsquared_error = 24500000.0\nsamples = 2\nvalue = 26500.0"] ;
818 -> 819 ;
820 [label="squared_error = 0.0\nsamples = 1\nvalue = 33500.0"] ;
819 -> 820 ;
821 [label="squared_error = 0.0\nsamples = 1\nvalue = 23000.0"] ;
819 -> 821 ;
822 [label="car_driven <= 241250.0\nsquared_error = 2940000.0\nsamples = 3\nvalue = 27900.0"] ;
818 -> 822 ;
823 [label="squared_error = 0.0\nsamples = 1\nvalue = 26500.0"] ;
822 -> 823 ;
824 [label="squared_error = 0.0\nsamples = 2\nvalue = 30000.0"] ;
822 -> 824 ;
825 [label="squared_error = 0.0\nsamples = 8\nvalue = 93450.0"] ;
53 -> 825 ;
826 [label="car_driven <= 318500.0\nsquared_error = 21937500.0\nsamples = 12\nvalue = 15500.0"] ;
52 -> 826 ;
827 [label="car_model_year <= 2011.5\nsquared_error = 20132653.1\nsamples = 10\nvalue = 16285.7"] ;
826 -> 827 ;
828 [label="car_transmission_Automatic <= 0.5\nsquared_error = 8000000.0\nsamples = 2\nvalue = 9000.0"] ;
827 -> 828 ;
829 [label="squared_error = 0.0\nsamples = 1\nvalue = 13000.0"] ;
828 -> 829 ;
830 [label="squared_error = 0.0\nsamples = 1\nvalue = 7000.0"] ;
828 -> 830 ;
831 [label="car_transmission_Automatic <= 0.5\nsquared_error = 5016528.9\nsamples = 8\nvalue = 18272.7"] ;
827 -> 831 ;
832 [label="car_model_year <= 2013.0\nsquared_error = 250000.0\nsamples = 2\nvalue = 15500.0"] ;
831 -> 832 ;
833 [label="squared_error = 0.0\nsamples = 1\nvalue = 15000.0"] ;
832 -> 833 ;
834 [label="squared_error = 0.0\nsamples = 1\nvalue = 16000.0"] ;
832 -> 834 ;
835 [label="car_driven <= 259500.0\nsquared_error = 3987654.3\nsamples = 6\nvalue = 18888.9"] ;
831 -> 835 ;
836 [label="car_model_year <= 2012.5\nsquared_error = 4062500.0\nsamples = 4\nvalue = 18250.0"] ;
835 -> 836 ;
837 [label="squared_error = 0.0\nsamples = 1\nvalue = 17500.0"] ;
836 -> 837 ;
838 [label="car_driven <= 213656.0\nsquared_error = 5671875.0\nsamples = 3\nvalue = 18625.0"] ;
836 -> 838 ;
839 [label="squared_error = 0.0\nsamples = 2\nvalue = 20000.0"] ;
838 -> 839 ;
840 [label="squared_error = 0.0\nsamples = 1\nvalue = 14500.0"] ;
838 -> 840 ;
841 [label="car_driven <= 294500.0\nsquared_error = 1388888.9\nsamples = 2\nvalue = 20166.7"] ;
835 -> 841 ;
842 [label="squared_error = 0.0\nsamples = 1\nvalue = 21000.0"] ;
841 -> 842 ;
843 [label="squared_error = 0.0\nsamples = 1\nvalue = 18500.0"] ;
841 -> 843 ;
844 [label="squared_error = 0.0\nsamples = 2\nvalue = 10000.0"] ;
826 -> 844 ;
845 [label="squared_error = 0.0\nsamples = 1\nvalue = 100000.0"] ;
51 -> 845 ;
846 [label="car_model_Ram <= 0.5\nsquared_error = 233905306.1\nsamples = 22\nvalue = 36257.1"] ;
50 -> 846 ;
847 [label="car_model_Avenger <= 0.5\nsquared_error = 240360726.6\nsamples = 21\nvalue = 36147.1"] ;
846 -> 847 ;
848 [label="car_driven <= 219500.0\nsquared_error = 232330578.5\nsamples = 20\nvalue = 36818.2"] ;
847 -> 848 ;
849 [label="car_model_Challenger <= 0.5\nsquared_error = 222743055.6\nsamples = 13\nvalue = 41416.7"] ;
848 -> 849 ;
850 [label="car_model_Durango <= 0.5\nsquared_error = 241246537.4\nsamples = 11\nvalue = 40736.8"] ;
849 -> 850 ;
851 [label="car_model_year <= 2013.5\nsquared_error = 378090000.0\nsamples = 7\nvalue = 45900.0"] ;
850 -> 851 ;
852 [label="car_driven <= 198500.0\nsquared_error = 121714285.7\nsamples = 5\nvalue = 38000.0"] ;
851 -> 852 ;
853 [label="car_driven <= 144500.0\nsquared_error = 64222222.2\nsamples = 4\nvalue = 41333.3"] ;
852 -> 853 ;
854 [label="car_driven <= 72087.5\nsquared_error = 98000000.0\nsamples = 2\nvalue = 45000.0"] ;
853 -> 854 ;
855 [label="squared_error = 0.0\nsamples = 1\nvalue = 38000.0"] ;
854 -> 855 ;
856 [label="squared_error = 0.0\nsamples = 1\nvalue = 59000.0"] ;
854 -> 856 ;
857 [label="car_driven <= 171500.0\nsquared_error = 3555555.6\nsamples = 2\nvalue = 37666.7"] ;
853 -> 857 ;
858 [label="squared_error = 0.0\nsamples = 1\nvalue = 35000.0"] ;
857 -> 858 ;
859 [label="squared_error = 0.0\nsamples = 1\nvalue = 39000.0"] ;
857 -> 859 ;
860 [label="squared_error = 0.0\nsamples = 1\nvalue = 18000.0"] ;
852 -> 860 ;
861 [label="car_driven <= 160250.0\nsquared_error = 490888888.9\nsamples = 2\nvalue = 64333.3"] ;
851 -> 861 ;
862 [label="squared_error = 0.0\nsamples = 1\nvalue = 80000.0"] ;
861 -> 862 ;
863 [label="squared_error = 0.0\nsamples = 1\nvalue = 33000.0"] ;
861 -> 863 ;
864 [label="car_model_year <= 2012.5\nsquared_error = 26666666.7\nsamples = 4\nvalue = 35000.0"] ;
850 -> 864 ;
865 [label="car_model_year <= 2011.5\nsquared_error = 13000000.0\nsamples = 3\nvalue = 38000.0"] ;
864 -> 865 ;
866 [label="car_driven <= 199950.0\nsquared_error = 18750000.0\nsamples = 2\nvalue = 37500.0"] ;
865 -> 866 ;
867 [label="squared_error = 0.0\nsamples = 1\nvalue = 40000.0"] ;
866 -> 867 ;
868 [label="squared_error = 0.0\nsamples = 1\nvalue = 30000.0"] ;
866 -> 868 ;
869 [label="squared_error = 0.0\nsamples = 1\nvalue = 39000.0"] ;
865 -> 869 ;
870 [label="squared_error = 0.0\nsamples = 1\nvalue = 29000.0"] ;
864 -> 870 ;
871 [label="car_model_year <= 2013.5\nsquared_error = 144000000.0\nsamples = 2\nvalue = 44000.0"] ;
849 -> 871 ;
872 [label="squared_error = 0.0\nsamples = 1\nvalue = 38000.0"] ;
871 -> 872 ;
873 [label="squared_error = 0.0\nsamples = 1\nvalue = 68000.0"] ;
871 -> 873 ;
874 [label="car_model_Nitro <= 0.5\nsquared_error = 51135802.5\nsamples = 7\nvalue = 24555.6"] ;
848 -> 874 ;
875 [label="car_model_year <= 2011.0\nsquared_error = 20000000.0\nsamples = 4\nvalue = 30000.0"] ;
874 -> 875 ;
876 [label="squared_error = 0.0\nsamples = 1\nvalue = 25000.0"] ;
875 -> 876 ;
877 [label="car_model_Charger <= 0.5\nsquared_error = 5555555.6\nsamples = 3\nvalue = 33333.3"] ;
875 -> 877 ;
878 [label="squared_error = 0.0\nsamples = 1\nvalue = 35000.0"] ;
877 -> 878 ;
879 [label="car_driven <= 271500.0\nsquared_error = 6250000.0\nsamples = 2\nvalue = 32500.0"] ;
877 -> 879 ;
880 [label="squared_error = 0.0\nsamples = 1\nvalue = 30000.0"] ;
879 -> 880 ;
881 [label="squared_error = 0.0\nsamples = 1\nvalue = 35000.0"] ;
879 -> 881 ;
882 [label="car_driven <= 303205.0\nsquared_error = 6687500.0\nsamples = 3\nvalue = 17750.0"] ;
874 -> 882 ;
883 [label="car_driven <= 245000.0\nsquared_error = 5555555.6\nsamples = 2\nvalue = 18666.7"] ;
882 -> 883 ;
884 [label="squared_error = 0.0\nsamples = 1\nvalue = 17000.0"] ;
883 -> 884 ;
885 [label="squared_error = 0.0\nsamples = 1\nvalue = 22000.0"] ;
883 -> 885 ;
886 [label="squared_error = 0.0\nsamples = 1\nvalue = 15000.0"] ;
882 -> 886 ;
887 [label="squared_error = 0.0\nsamples = 1\nvalue = 14000.0"] ;
847 -> 887 ;
888 [label="squared_error = 0.0\nsamples = 1\nvalue = 40000.0"] ;
846 -> 888 ;
889 [label="squared_error = 0.0\nsamples = 1\nvalue = 35000.0"] ;
49 -> 889 ;
890 [label="car_transmission_CVT <= 0.5\nsquared_error = 2600000.0\nsamples = 7\nvalue = 11500.0"] ;
48 -> 890 ;
891 [label="car_transmission_Automatic <= 0.5\nsquared_error = 2839843.8\nsamples = 5\nvalue = 11562.5"] ;
890 -> 891 ;
892 [label="squared_error = 0.0\nsamples = 1\nvalue = 10000.0"] ;
891 -> 892 ;
893 [label="car_driven <= 218500.0\nsquared_error = 2846938.8\nsamples = 4\nvalue = 11785.7"] ;
891 -> 893 ;
894 [label="car_model_year <= 2010.5\nsquared_error = 562500.0\nsamples = 2\nvalue = 14250.0"] ;
893 -> 894 ;
895 [label="squared_error = 0.0\nsamples = 1\nvalue = 13500.0"] ;
894 -> 895 ;
896 [label="squared_error = 0.0\nsamples = 1\nvalue = 15000.0"] ;
894 -> 896 ;
897 [label="car_driven <= 325000.0\nsquared_error = 360000.0\nsamples = 2\nvalue = 10800.0"] ;
893 -> 897 ;
898 [label="squared_error = 0.0\nsamples = 1\nvalue = 10500.0"] ;
897 -> 898 ;
899 [label="squared_error = 0.0\nsamples = 1\nvalue = 12000.0"] ;
897 -> 899 ;
900 [label="car_model_year <= 2008.5\nsquared_error = 1562500.0\nsamples = 2\nvalue = 11250.0"] ;
890 -> 900 ;
901 [label="squared_error = 0.0\nsamples = 1\nvalue = 12500.0"] ;
900 -> 901 ;
902 [label="squared_error = 0.0\nsamples = 1\nvalue = 10000.0"] ;
900 -> 902 ;
903 [label="car_transmission_Manual <= 0.5\nsquared_error = 102760000.0\nsamples = 7\nvalue = 25200.0"] ;
47 -> 903 ;
904 [label="car_model_year <= 2013.5\nsquared_error = 25888888.9\nsamples = 5\nvalue = 32666.7"] ;
903 -> 904 ;
905 [label="car_model_year <= 2012.5\nsquared_error = 3687500.0\nsamples = 3\nvalue = 29250.0"] ;
904 -> 905 ;
906 [label="squared_error = 0.0\nsamples = 1\nvalue = 30000.0"] ;
905 -> 906 ;
907 [label="car_driven <= 159123.0\nsquared_error = 6250000.0\nsamples = 2\nvalue = 28500.0"] ;
905 -> 907 ;
908 [label="squared_error = 0.0\nsamples = 1\nvalue = 31000.0"] ;
907 -> 908 ;
909 [label="squared_error = 0.0\nsamples = 1\nvalue = 26000.0"] ;
907 -> 909 ;
910 [label="car_driven <= 73092.5\nsquared_error = 250000.0\nsamples = 2\nvalue = 39500.0"] ;
904 -> 910 ;
911 [label="squared_error = 0.0\nsamples = 1\nvalue = 39000.0"] ;
910 -> 911 ;
912 [label="squared_error = 0.0\nsamples = 1\nvalue = 40000.0"] ;
910 -> 912 ;
913 [label="car_driven <= 118500.0\nsquared_error = 9000000.0\nsamples = 2\nvalue = 14000.0"] ;
903 -> 913 ;
914 [label="squared_error = 0.0\nsamples = 1\nvalue = 17000.0"] ;
913 -> 914 ;
915 [label="squared_error = 0.0\nsamples = 1\nvalue = 11000.0"] ;
913 -> 915 ;
916 [label="car_model_year <= 2013.0\nsquared_error = 29828888.9\nsamples = 9\nvalue = 30066.7"] ;
46 -> 916 ;
917 [label="car_driven <= 89135.0\nsquared_error = 7055555.6\nsamples = 3\nvalue = 19666.7"] ;
916 -> 917 ;
918 [label="squared_error = 0.0\nsamples = 1\nvalue = 16500.0"] ;
917 -> 918 ;
919 [label="car_driven <= 209000.0\nsquared_error = 3062500.0\nsamples = 2\nvalue = 21250.0"] ;
917 -> 919 ;
920 [label="squared_error = 0.0\nsamples = 1\nvalue = 23000.0"] ;
919 -> 920 ;
921 [label="squared_error = 0.0\nsamples = 1\nvalue = 19500.0"] ;
919 -> 921 ;
922 [label="car_driven <= 213500.0\nsquared_error = 1722222.2\nsamples = 6\nvalue = 32666.7"] ;
916 -> 922 ;
923 [label="car_driven <= 131197.5\nsquared_error = 360000.0\nsamples = 5\nvalue = 33200.0"] ;
922 -> 923 ;
924 [label="squared_error = 0.0\nsamples = 4\nvalue = 33000.0"] ;
923 -> 924 ;
925 [label="squared_error = 0.0\nsamples = 1\nvalue = 35000.0"] ;
923 -> 925 ;
926 [label="squared_error = 0.0\nsamples = 1\nvalue = 30000.0"] ;
922 -> 926 ;
927 [label="car_driven <= 195500.0\nsquared_error = 2170782222.2\nsamples = 9\nvalue = 63466.7"] ;
45 -> 927 ;
928 [label="car_driven <= 191500.0\nsquared_error = 2755222222.2\nsamples = 4\nvalue = 100333.3"] ;
927 -> 928 ;
929 [label="car_driven <= 24074.0\nsquared_error = 492750000.0\nsamples = 3\nvalue = 65500.0"] ;
928 -> 929 ;
930 [label="squared_error = 0.0\nsamples = 1\nvalue = 38000.0"] ;
929 -> 930 ;
931 [label="car_driven <= 118000.0\nsquared_error = 320888888.9\nsamples = 2\nvalue = 74666.7"] ;
929 -> 931 ;
932 [label="squared_error = 0.0\nsamples = 1\nvalue = 100000.0"] ;
931 -> 932 ;
933 [label="squared_error = 0.0\nsamples = 1\nvalue = 62000.0"] ;
931 -> 933 ;
934 [label="squared_error = 0.0\nsamples = 1\nvalue = 170000.0"] ;
928 -> 934 ;
935 [label="car_model_year <= 2009.5\nsquared_error = 270987654.3\nsamples = 5\nvalue = 38888.9"] ;
927 -> 935 ;
936 [label="car_driven <= 314500.0\nsquared_error = 3061224.5\nsamples = 3\nvalue = 30714.3"] ;
935 -> 936 ;
937 [label="car_model_year <= 2007.0\nsquared_error = 2000000.0\nsamples = 2\nvalue = 29000.0"] ;
936 -> 937 ;
938 [label="squared_error = 0.0\nsamples = 1\nvalue = 30000.0"] ;
937 -> 938 ;
939 [label="squared_error = 0.0\nsamples = 1\nvalue = 27000.0"] ;
937 -> 939 ;
940 [label="squared_error = 0.0\nsamples = 1\nvalue = 32000.0"] ;
936 -> 940 ;
941 [label="car_driven <= 209500.0\nsquared_error = 156250000.0\nsamples = 2\nvalue = 67500.0"] ;
935 -> 941 ;
942 [label="squared_error = 0.0\nsamples = 1\nvalue = 55000.0"] ;
941 -> 942 ;
943 [label="squared_error = 0.0\nsamples = 1\nvalue = 80000.0"] ;
941 -> 943 ;
944 [label="squared_error = 0.0\nsamples = 1\nvalue = 125000.0"] ;
44 -> 944 ;
945 [label="squared_error = 0.0\nsamples = 1\nvalue = 180000.0"] ;
43 -> 945 ;
946 [label="squared_error = 0.0\nsamples = 1\nvalue = 25000.0"] ;
42 -> 946 ;
947 [label="car_model_year <= 2010.5\nsquared_error = 12250000.0\nsamples = 2\nvalue = 16500.0"] ;
41 -> 947 ;
948 [label="squared_error = 0.0\nsamples = 1\nvalue = 13000.0"] ;
947 -> 948 ;
949 [label="squared_error = 0.0\nsamples = 1\nvalue = 20000.0"] ;
947 -> 949 ;
950 [label="car_model_year <= 2003.5\nsquared_error = 24500000.0\nsamples = 4\nvalue = 21000.0"] ;
40 -> 950 ;
951 [label="squared_error = 0.0\nsamples = 1\nvalue = 14000.0"] ;
950 -> 951 ;
952 [label="car_model_year <= 2009.5\nsquared_error = 10888888.9\nsamples = 3\nvalue = 23333.3"] ;
950 -> 952 ;
953 [label="car_model_year <= 2007.5\nsquared_error = 6250000.0\nsamples = 2\nvalue = 21500.0"] ;
952 -> 953 ;
954 [label="squared_error = 0.0\nsamples = 1\nvalue = 24000.0"] ;
953 -> 954 ;
955 [label="squared_error = 0.0\nsamples = 1\nvalue = 19000.0"] ;
953 -> 955 ;
956 [label="squared_error = 0.0\nsamples = 1\nvalue = 27000.0"] ;
952 -> 956 ;
957 [label="car_model_year <= 2012.0\nsquared_error = 821500000.0\nsamples = 23\nvalue = 54500.0"] ;
39 -> 957 ;
958 [label="car_model_year <= 2010.5\nsquared_error = 191648760.3\nsamples = 8\nvalue = 24318.2"] ;
957 -> 958 ;
959 [label="car_driven <= 340000.0\nsquared_error = 48744898.0\nsamples = 6\nvalue = 15071.4"] ;
958 -> 959 ;
960 [label="car_driven <= 125150.0\nsquared_error = 11440000.0\nsamples = 5\nvalue = 19100.0"] ;
959 -> 960 ;
961 [label="squared_error = 0.0\nsamples = 1\nvalue = 15000.0"] ;
960 -> 961 ;
962 [label="car_driven <= 259000.0\nsquared_error = 9046875.0\nsamples = 4\nvalue = 20125.0"] ;
960 -> 962 ;
963 [label="car_model_year <= 2009.0\nsquared_error = 6250000.0\nsamples = 2\nvalue = 22500.0"] ;
962 -> 963 ;
964 [label="squared_error = 0.0\nsamples = 1\nvalue = 25000.0"] ;
963 -> 964 ;
965 [label="squared_error = 0.0\nsamples = 1\nvalue = 20000.0"] ;
963 -> 965 ;
966 [label="car_driven <= 281500.0\nsquared_error = 562500.0\nsamples = 2\nvalue = 17750.0"] ;
962 -> 966 ;
967 [label="squared_error = 0.0\nsamples = 1\nvalue = 17000.0"] ;
966 -> 967 ;
968 [label="squared_error = 0.0\nsamples = 1\nvalue = 18500.0"] ;
966 -> 968 ;
969 [label="squared_error = 0.0\nsamples = 1\nvalue = 5000.0"] ;
959 -> 969 ;
970 [label="car_driven <= 218000.0\nsquared_error = 30250000.0\nsamples = 2\nvalue = 40500.0"] ;
958 -> 970 ;
971 [label="squared_error = 0.0\nsamples = 1\nvalue = 46000.0"] ;
970 -> 971 ;
972 [label="squared_error = 0.0\nsamples = 1\nvalue = 35000.0"] ;
970 -> 972 ;
973 [label="car_model_year <= 2013.5\nsquared_error = 424320861.7\nsamples = 15\nvalue = 70309.5"] ;
957 -> 973 ;
974 [label="car_driven <= 244930.5\nsquared_error = 333476080.2\nsamples = 13\nvalue = 66305.6"] ;
973 -> 974 ;
975 [label="car_driven <= 27107.5\nsquared_error = 158838541.7\nsamples = 10\nvalue = 76875.0"] ;
974 -> 975 ;
976 [label="squared_error = 0.0\nsamples = 1\nvalue = 42000.0"] ;
975 -> 976 ;
977 [label="car_driven <= 65145.5\nsquared_error = 52657024.8\nsamples = 9\nvalue = 80045.5"] ;
975 -> 977 ;
978 [label="car_driven <= 54850.0\nsquared_error = 22687500.0\nsamples = 3\nvalue = 87250.0"] ;
977 -> 978 ;
979 [label="squared_error = 0.0\nsamples = 1\nvalue = 79000.0"] ;
978 -> 979 ;
980 [label="squared_error = 0.0\nsamples = 2\nvalue = 90000.0"] ;
978 -> 980 ;
981 [label="car_driven <= 161930.5\nsquared_error = 23173469.4\nsamples = 6\nvalue = 75928.6"] ;
977 -> 981 ;
982 [label="car_driven <= 92579.5\nsquared_error = 3812500.0\nsamples = 5\nvalue = 77750.0"] ;
981 -> 982 ;
983 [label="car_driven <= 76840.5\nsquared_error = 4500000.0\nsamples = 2\nvalue = 76500.0"] ;
982 -> 983 ;
984 [label="squared_error = 0.0\nsamples = 1\nvalue = 79500.0"] ;
983 -> 984 ;
985 [label="squared_error = 0.0\nsamples = 1\nvalue = 75000.0"] ;
983 -> 985 ;
986 [label="squared_error = 0.0\nsamples = 3\nvalue = 79000.0"] ;
982 -> 986 ;
987 [label="squared_error = 0.0\nsamples = 1\nvalue = 65000.0"] ;
981 -> 987 ;
988 [label="car_driven <= 327500.0\nsquared_error = 12472222.2\nsamples = 3\nvalue = 45166.7"] ;
974 -> 988 ;
989 [label="car_driven <= 302500.0\nsquared_error = 15187500.0\nsamples = 2\nvalue = 46250.0"] ;
988 -> 989 ;
990 [label="squared_error = 0.0\nsamples = 1\nvalue = 44000.0"] ;
989 -> 990 ;
991 [label="squared_error = 0.0\nsamples = 1\nvalue = 53000.0"] ;
989 -> 991 ;
992 [label="squared_error = 0.0\nsamples = 1\nvalue = 43000.0"] ;
988 -> 992 ;
993 [label="car_driven <= 107740.5\nsquared_error = 296055555.6\nsamples = 2\nvalue = 94333.3"] ;
973 -> 993 ;
994 [label="squared_error = 0.0\nsamples = 1\nvalue = 106500.0"] ;
993 -> 994 ;
995 [label="squared_error = 0.0\nsamples = 1\nvalue = 70000.0"] ;
993 -> 995 ;
996 [label="car_transmission_Manual <= 0.5\nsquared_error = 14954978.2\nsamples = 19\nvalue = 19257.2"] ;
38 -> 996 ;
997 [label="car_driven <= 109370.5\nsquared_error = 15420422.1\nsamples = 18\nvalue = 19249.7"] ;
996 -> 997 ;
998 [label="car_model_year <= 2013.5\nsquared_error = 5399501.6\nsamples = 10\nvalue = 21578.6"] ;
997 -> 998 ;
999 [label="squared_error = 0.0\nsamples = 6\nvalue = 20000.0"] ;
998 -> 999 ;
1000 [label="squared_error = 0.0\nsamples = 4\nvalue = 24999.0"] ;
998 -> 1000 ;
1001 [label="car_model_year <= 2010.5\nsquared_error = 10552367.1\nsamples = 8\nvalue = 15845.8"] ;
997 -> 1001 ;
1002 [label="squared_error = 0.0\nsamples = 1\nvalue = 10500.0"] ;
1001 -> 1002 ;
1003 [label="car_model_year <= 2011.5\nsquared_error = 6330413.5\nsamples = 7\nvalue = 16817.7"] ;
1001 -> 1003 ;
1004 [label="squared_error = 0.0\nsamples = 1\nvalue = 16000.0"] ;
1003 -> 1004 ;
1005 [label="car_driven <= 155000.0\nsquared_error = 8359531.5\nsamples = 6\nvalue = 17124.4"] ;
1003 -> 1005 ;
1006 [label="car_driven <= 135020.5\nsquared_error = 1835510.4\nsamples = 5\nvalue = 16142.1"] ;
1005 -> 1006 ;
1007 [label="squared_error = 0.0\nsamples = 4\nvalue = 16999.0"] ;
1006 -> 1007 ;
1008 [label="squared_error = 0.0\nsamples = 1\nvalue = 14000.0"] ;
1006 -> 1008 ;
1009 [label="squared_error = 0.0\nsamples = 1\nvalue = 24000.0"] ;
1005 -> 1009 ;
1010 [label="squared_error = 0.0\nsamples = 1\nvalue = 19500.0"] ;
996 -> 1010 ;
1011 [label="car_driven <= 117000.0\nsquared_error = 71200000.0\nsamples = 3\nvalue = 92000.0"] ;
37 -> 1011 ;
1012 [label="car_driven <= 50065.0\nsquared_error = 64222222.2\nsamples = 2\nvalue = 96666.7"] ;
1011 -> 1012 ;
1013 [label="squared_error = 0.0\nsamples = 1\nvalue = 91000.0"] ;
1012 -> 1013 ;
1014 [label="squared_error = 0.0\nsamples = 1\nvalue = 108000.0"] ;
1012 -> 1014 ;
1015 [label="squared_error = 0.0\nsamples = 1\nvalue = 85000.0"] ;
1011 -> 1015 ;
1016 [label="car_model_ML <= 0.5\nsquared_error = 872484375.0\nsamples = 10\nvalue = 51375.0"] ;
36 -> 1016 ;
1017 [label="car_model_year <= 2009.0\nsquared_error = 488543209.9\nsamples = 5\nvalue = 51888.9"] ;
1016 -> 1017 ;
1018 [label="car_driven <= 210500.0\nsquared_error = 12000000.0\nsamples = 2\nvalue = 31000.0"] ;
1017 -> 1018 ;
1019 [label="squared_error = 0.0\nsamples = 1\nvalue = 33000.0"] ;
1018 -> 1019 ;
1020 [label="squared_error = 0.0\nsamples = 1\nvalue = 25000.0"] ;
1018 -> 1020 ;
1021 [label="car_model_E <= 0.5\nsquared_error = 241440000.0\nsamples = 3\nvalue = 68600.0"] ;
1017 -> 1021 ;
1022 [label="squared_error = 0.0\nsamples = 1\nvalue = 71000.0"] ;
1021 -> 1022 ;
